
\data\
ngram 1=15045
ngram 2=49067

\1-grams:
-4.606322	00	-0.30103
-4.606322	1	-0.30103
-4.606322	110	-0.30103
-4.606322	15	-0.30103
-4.606322	1994	-0.30103
-4.430231	30000	-0.4771213
-4.606322	500	-0.30103
-4.430231	6	-0.30103
-1.294462	</s>
-99	<s>	-0.5267414
-1.696499	A	-0.3969
-4.606322	AB	-0.30103
-4.606322	ABSENCE	-0.30103
-4.606322	ABSENCI	-0.30103
-4.606322	ABSENCÍM	-0.30103
-4.606322	ABSOLUTNÍ	-0.30103
-4.430231	ABSOLUTNĚ	-0.30103
-4.606322	ABSOLVENT	-0.30103
-4.606322	ABSOLVENTEM	-0.30103
-4.430231	ABSOLVOVALI	-0.30103
-4.606322	ABSOLVOVÁNÍM	-0.30103
-4.606322	ABSOLVUJÍ	-0.30103
-4.606322	ABSORBOVAT	-0.30103
-4.606322	ABSORBÉRŮ	-0.30103
-4.606322	ABSURDNÍ	-0.30103
-2.934224	ABY	-0.4202164
-4.208382	ABYCH	-0.30103
-3.907352	ABYCHOM	-0.30103
-4.305292	ABYSTE	-0.39794
-4.606322	ACETYLENU	-0.30103
-4.606322	ADEKVÁTNÍ	-0.30103
-4.606322	ADEPTY	-0.30103
-4.606322	ADMINISTRATIVNÍCH	-0.30103
-4.606322	ADMINISTRATIVNÍMI	-0.30103
-4.606322	ADRES	-0.30103
-4.606322	ADRESE	-0.30103
-4.606322	ADRESOVANÝM	-0.30103
-4.606322	ADRESOVÁN	-0.30103
-4.062254	ADRESU	-0.3424227
-4.430231	ADRESY	-0.4771213
-4.430231	ADRESÁTOVI	-0.30103
-4.430231	ADRESÁTŮ	-0.30103
-4.606322	ADRESÁŘ	-0.30103
-4.606322	ADRESÁŘE	-0.30103
-4.305292	ADRESÁŘŮ	-0.39794
-4.606322	ADVOKÁTI	-0.30103
-4.606322	AERO	-0.30103
-4.606322	AESKULAP	-0.30103
-4.606322	AFORISMUS	-0.30103
-4.606322	AFRIKOU	-0.30103
-4.606322	AFRIKU	-0.30103
-4.430231	AFRIKY	-0.30103
-4.606322	AFÉR	-0.30103
-4.305292	AFÉRY	-0.60206
-4.606322	AFÉŘE	-0.30103
-4.606322	AGENDU	-0.30103
-4.606322	AGENTUR	-0.30103
-4.062254	AGENTURA	-0.3424227
-4.606322	AGENTUROU	-0.30103
-4.208382	AGENTURY	-0.3679768
-4.430231	AGENTUŘE	-0.30103
-4.606322	AGREGÁTNÍ	-0.30103
-4.606322	AGREGÁTŮ	-0.30103
-4.606322	AGRESIVNÍ	-0.30103
-4.606322	AGRESIVNĚJI	-0.30103
-4.305292	AGROTECH	-0.30103
-4.606322	AGRÁRNÍM	-0.30103
-4.606322	AIRLINES	-0.30103
-4.062254	AKCE	-0.30103
-4.606322	AKCEPTOVÁNÍ	-0.30103
-4.606322	AKCI	-0.30103
-3.363284	AKCIE	-0.3452336
-4.129201	AKCIEMI	-0.30103
-4.208382	AKCII	-0.3679768
-4.430231	AKCIONÁŘ	-0.30103
-4.305292	AKCIONÁŘE	-0.30103
-4.430231	AKCIONÁŘI	-0.30103
-4.129201	AKCIONÁŘŮ	-0.30103
-4.004262	AKCIOVÁ	-0.90309
-3.907352	AKCIOVÉ	-0.9999999
-4.430231	AKCIOVÝCH	-0.4771213
-3.327569	AKCIÍ	-0.4164234
-4.208382	AKCIÍCH	-0.30103
-4.129201	AKCÍ	-0.30103
-4.129201	AKCÍCH	-0.3521825
-4.606322	AKCÍM	-0.30103
-4.606322	AKONTAČNÍ	-0.30103
-4.606322	AKRYLÁTOVÝM	-0.30103
-4.305292	AKTIVIT	-0.39794
-4.606322	AKTIVITA	-0.30103
-4.430231	AKTIVITAMI	-0.30103
-3.95311	AKTIVITY	-0.30103
-4.606322	AKTIVITÁCH	-0.30103
-3.95311	AKTIVNÍ	-0.3309932
-4.430231	AKTIVNÍM	-0.30103
-4.430231	AKTIVNĚ	-0.30103
-4.208382	AKTUÁLNÍ	-0.30103
-4.430231	AKTUÁLNÍM	-0.30103
-4.606322	AKUPRESUROU	-0.30103
-4.606322	AKVIZIČNÍ	-0.30103
-4.606322	AKVIZIČNÍCH	-0.30103
-4.606322	AKČNÍHO	-0.30103
-2.549417	ALE	-0.4128657
-3.828171	ALESPOŇ	-0.3222193
-4.208382	ALFA	-0.4771212
-4.606322	ALFABETICKÉM	-0.30103
-4.430231	ALJAŠCE	-0.30103
-4.305292	ALKOHOL	-0.39794
-4.606322	ALKOHOLU	-0.30103
-4.606322	ALR	-0.30103
-4.606322	ALTERNATIVNÍ	-0.30103
-4.606322	ALTERNATIVOU	-0.30103
-4.606322	AMADEOVI	-0.30103
-4.430231	AMALTHEA	-0.30103
-4.606322	AMBICIÓZNÍ	-0.30103
-4.606322	AMERICKÁ	-0.30103
-3.907352	AMERICKÉ	-0.3590219
-4.606322	AMERICKÉHO	-0.30103
-4.430231	AMERICKÉMU	-0.30103
-4.208382	AMERICKÝ	-0.30103
-3.907352	AMERICKÝCH	-0.39794
-4.606322	AMERIKOU	-0.30103
-4.208382	AMERIKY	-0.30103
-4.430231	AMERIČANÉ	-0.30103
-4.305292	AMERIČANŮ	-0.39794
-4.606322	AMERIČANŮM	-0.30103
-4.430231	AMERIČTÍ	-0.4771212
-4.606322	AMOS	-0.30103
-4.606322	ANABÁZI	-0.30103
-4.606322	ANALOGICKY	-0.30103
-4.606322	ANALYZOVALI	-0.30103
-4.606322	ANALYZOVAT	-0.30103
-4.606322	ANALYZUJE	-0.30103
-4.430231	ANALÝZE	-0.30103
-4.305292	ANALÝZY	-0.30103
-4.606322	ANDREA	-0.30103
-3.95311	ANEBO	-0.30103
-4.606322	ANGAŽOVANÝCH	-0.30103
-4.606322	ANGAŽOVÁNÍ	-0.30103
-4.606322	ANGLICKÝ	-0.30103
-4.606322	ANGLIE	-0.30103
-4.430231	ANGLIČTINY	-0.30103
-4.606322	ANGLIČTINĚ	-0.30103
-3.009725	ANI	-0.3388185
-4.305292	ANIŽ	-0.60206
-4.606322	ANNA	-0.30103
-4.606322	ANNU	-0.30103
-4.004262	ANO	-0.30103
-4.606322	ANOMÁLII	-0.30103
-4.606322	ANONYMNÍMI	-0.30103
-4.606322	ANORGANICKÉ	-0.30103
-4.606322	ANTALA	-0.30103
-4.606322	ANTIKVA	-0.30103
-4.606322	ANTIKVY	-0.30103
-4.606322	ANTIREKLAMNÍ	-0.30103
-4.606322	ANTONÍN	-0.30103
-4.606322	ANTONÍNA	-0.30103
-4.606322	ANTVERPY	-0.30103
-4.430231	ANTVERPÁCH	-0.30103
-4.606322	ANTWERPSKÉ	-0.30103
-4.430231	ANTÉNY	-0.30103
-4.606322	AOT	-0.30103
-4.606322	APARATURY	-0.30103
-4.606322	APARTMÁNECH	-0.30103
-4.606322	APARTMÁNŮM	-0.30103
-4.606322	APATICKÝ	-0.30103
-4.208382	APLIKACE	-0.30103
-4.430231	APLIKACI	-0.30103
-4.606322	APLIKOVAT	-0.30103
-4.606322	APLIKUJE	-0.30103
-4.606322	APOLINÁŘSKÉ	-0.30103
-4.606322	ARANŽOVANÝ	-0.30103
-4.606322	ARCH	-0.30103
-4.606322	ARCHITEKTOVI	-0.30103
-4.606322	ARCHITEKTŮ	-0.30103
-4.606322	ARCHITEKTŮM	-0.30103
-4.606322	ARCHIVACE	-0.30103
-4.430231	AREÁLU	-0.30103
-4.606322	AREÁLŮ	-0.30103
-4.606322	ARGENTINY	-0.30103
-4.430231	ARGUMENT	-0.30103
-4.606322	ARGUMENTEM	-0.30103
-4.606322	ARGUMENTY	-0.30103
-4.606322	ARMÁDA	-0.30103
-4.606322	ARTIKLEM	-0.30103
-4.305292	ARXON	-0.30103
-4.606322	ARXONU	-0.30103
-4.606322	ARÉNĚ	-0.30103
-2.972854	ASI	-0.4369087
-4.606322	ASIE	-0.30103
-4.606322	ASII	-0.30103
-4.606322	ASISTENTKA	-0.30103
-4.606322	ASISTENTY	-0.30103
-4.606322	ASISTENTŮ	-0.30103
-3.828171	ASOCIACE	-0.3222193
-4.606322	ASOCIACI	-0.30103
-4.606322	ASOCIACÍ	-0.30103
-4.606322	ASPEKT	-0.30103
-4.606322	ASPEKTECH	-0.30103
-4.062254	ASPOŇ	-0.30103
-4.430231	ASTRONOMICKÉ	-0.4771213
-4.208382	ATELIÉR	-0.30103
-4.606322	ATELIÉRU	-0.30103
-4.606322	ATLET	-0.30103
-4.606322	ATMOSFÉRA	-0.30103
-4.606322	ATMOSFÉROU	-0.30103
-4.305292	ATMOSFÉŘE	-0.60206
-3.95311	ATRAKTIVNÍ	-0.3309932
-4.305292	ATRAKTIVNÍM	-0.30103
-4.606322	ATRAKTIVNĚJI	-0.30103
-4.606322	ATRIU	-0.30103
-4.606322	ATRIUM	-0.30103
-4.606322	ATYPICKÝ	-0.30103
-4.606322	AUDIO	-0.30103
-4.606322	AUDIOVIZUÁLNÍ	-0.30103
-4.606322	AUDITOŘI	-0.30103
-4.606322	AUDITU	-0.30103
-4.606322	AUGUSTY	-0.30103
-4.129201	AUKCI	-0.30103
-4.430231	AUKCÍ	-0.30103
-4.430231	AUKCÍCH	-0.30103
-4.606322	AUKČNÍ	-0.30103
-4.062254	AUT	-0.3424227
-4.305292	AUTA	-0.30103
-4.430231	AUTEM	-0.30103
-4.606322	AUTENTICKÉHO	-0.30103
-4.208382	AUTO	-0.3679768
-4.430231	AUTOBUSY	-0.30103
-4.606322	AUTODOPRAVCŮ	-0.30103
-4.606322	AUTOGENNÍHO	-0.30103
-4.606322	AUTOKEG	-0.30103
-4.606322	AUTOMASÁŽÍ	-0.30103
-4.606322	AUTOMATICKOU	-0.30103
-4.062254	AUTOMATICKY	-0.3424227
-4.208382	AUTOMATICKÉ	-0.30103
-4.606322	AUTOMATICKÉHO	-0.30103
-4.606322	AUTOMATICKÝ	-0.30103
-4.606322	AUTOMATICKÝCH	-0.30103
-4.606322	AUTOMECHANIK	-0.30103
-4.430231	AUTOMOBIL	-0.30103
-4.606322	AUTOMOBILISTY	-0.30103
-4.606322	AUTOMOBILKA	-0.30103
-4.004262	AUTOMOBILKY	-0.4393327
-4.208382	AUTOMOBILKÁCH	-0.69897
-4.606322	AUTOMOBILKÁM	-0.30103
-4.208382	AUTOMOBILOVÁ	-0.69897
-4.430231	AUTOMOBILU	-0.30103
-4.305292	AUTOMOBILY	-0.30103
-4.129201	AUTOMOBILŮ	-0.30103
-4.430231	AUTOOPRAVÁRENSTVÍ	-0.30103
-4.606322	AUTOOPRAVÁŘ	-0.30103
-4.430231	AUTOR	-0.30103
-3.95311	AUTORA	-0.4149733
-4.606322	AUTORIZOVANÝM	-0.30103
-4.606322	AUTOROVI	-0.30103
-4.606322	AUTORSKÁ	-0.30103
-4.208382	AUTORŮ	-0.30103
-4.606322	AUTOVARS	-0.30103
-4.606322	AUTOVARSU	-0.30103
-4.606322	AUTY	-0.30103
-4.606322	AUTĚ	-0.30103
-4.606322	AVERZI	-0.30103
-4.606322	AVIV	-0.30103
-4.606322	AVIZOVANOU	-0.30103
-4.606322	AVIZOVÁN	-0.30103
-4.062254	AVŠAK	-0.30103
-4.606322	AXIOM	-0.30103
-4.606322	AČ	-0.30103
-4.208382	AČKOLI	-0.3679768
-4.305292	AČKOLIV	-0.30103
-3.793409	AŤ	-0.4336556
-2.737091	AŽ	-0.4871982
-4.062254	B	-0.3424227
-4.606322	BADATEL	-0.30103
-4.430231	BAGETY	-0.30103
-4.606322	BAKALÁŘSKÉHO	-0.30103
-4.606322	BAKALÁŘSKÉM	-0.30103
-4.606322	BALNEOPROVOZŮ	-0.30103
-4.305292	BALÍKY	-0.39794
-4.606322	BALÍKŮ	-0.30103
-4.606322	BALÍRNY	-0.30103
-4.606322	BALÍČKEM	-0.30103
-4.606322	BALÍČKY	-0.30103
-4.606322	BALÓNEK	-0.30103
-4.430231	BANCE	-0.30103
-3.585133	BANK	-0.3377528
-3.828171	BANKA	-0.30103
-4.430231	BANKAMI	-0.4771213
-4.606322	BANKING	-0.30103
-4.062254	BANKOU	-0.3424227
-4.606322	BANKOVNICTVÍ	-0.30103
-3.828171	BANKOVNÍ	-0.3222193
-4.430231	BANKOVNÍCH	-0.30103
-4.208382	BANKOVNÍHO	-0.30103
-4.606322	BANKOVNÍM	-0.30103
-4.208382	BANKOVNÍMI	-0.4771212
-4.208382	BANKROT	-0.30103
-4.606322	BANKROTECH	-0.30103
-4.606322	BANKROTEM	-0.30103
-4.305292	BANKROTU	-0.30103
-4.430231	BANKROTY	-0.30103
-4.430231	BANKROTŮ	-0.30103
-4.129201	BANKU	-0.30103
-3.527141	BANKY	-0.3444957
-4.606322	BANKÁCH	-0.30103
-4.606322	BANKÁM	-0.30103
-4.606322	BANKÉŘ	-0.30103
-4.606322	BAREV	-0.30103
-4.606322	BAREVNÉ	-0.30103
-4.606322	BAREVNÝ	-0.30103
-4.606322	BAREVNÝM	-0.30103
-4.305292	BAREVNÝMI	-0.30103
-4.606322	BARIÉR	-0.30103
-4.606322	BARIÉRU	-0.30103
-4.606322	BARIÉRY	-0.30103
-4.606322	BARRANDOV	-0.30103
-4.430231	BARVA	-0.30103
-4.606322	BARVIVA	-0.30103
-4.430231	BARVU	-0.4771213
-4.305292	BARVY	-0.30103
-4.606322	BARVÁCH	-0.30103
-4.606322	BARVÁM	-0.30103
-4.606322	BARŮ	-0.30103
-4.606322	BASILEJI	-0.30103
-4.606322	BATOHY	-0.30103
-4.430231	BATOHŮ	-0.30103
-4.606322	BAUCH	-0.30103
-4.606322	BAUMA	-0.30103
-4.606322	BAVLNA	-0.30103
-4.606322	BAVLNY	-0.30103
-4.606322	BAVLNĚNÝCH	-0.30103
-4.606322	BAVORSKO	-0.30103
-4.606322	BAVORSKU	-0.30103
-4.606322	BAZAROVÉ	-0.30103
-4.606322	BAZÉN	-0.30103
-4.606322	BAZÉNU	-0.30103
-4.305292	BEDRNOVÁ	-0.60206
-4.606322	BEJVÁVALO	-0.30103
-4.430231	BELGICKÉ	-0.30103
-4.606322	BELGIE	-0.30103
-4.430231	BELGII	-0.30103
-4.606322	BELL	-0.30103
-4.606322	BENELUXU	-0.30103
-4.606322	BENZÍNU	-0.30103
-4.606322	BERANOVÝCH	-0.30103
-4.606322	BERLÍNSKÝCH	-0.30103
-3.95311	BEROU	-0.4149734
-4.606322	BEROUNEM	-0.30103
-4.606322	BERU	-0.30103
-4.606322	BESEDNÍMU	-0.30103
-4.606322	BESEDUJE	-0.30103
-4.606322	BESO	-0.30103
-4.305292	BETA	-0.30103
-4.606322	BETAKAROTENU	-0.30103
-4.606322	BETLÉMSKÉ	-0.30103
-4.606322	BETON	-0.30103
-4.606322	BETONOVÝMI	-0.30103
-4.606322	BETONÁŘSKÉHO	-0.30103
-4.430231	BETY	-0.30103
-4.606322	BETĚ	-0.30103
-3.081277	BEZ	-0.365488
-4.606322	BEZBŘEHÝ	-0.30103
-4.606322	BEZCHYBNĚ	-0.30103
-4.430231	BEZDRÁTOVÉ	-0.30103
-4.606322	BEZDRÁTOVÝ	-0.30103
-4.606322	BEZDĚKY	-0.30103
-4.606322	BEZDŮVODNĚ	-0.30103
-4.606322	BEZESPORU	-0.30103
-4.606322	BEZKONTAKTNÍ	-0.30103
-4.606322	BEZMÁLA	-0.30103
-4.606322	BEZNADĚJ	-0.30103
-4.606322	BEZNADĚJNÉ	-0.30103
-4.606322	BEZPEČNOST	-0.30103
-4.430231	BEZPEČNOSTI	-0.30103
-4.004262	BEZPEČNOSTNÍ	-0.4393327
-4.606322	BEZPEČNOSTNÍCH	-0.30103
-4.606322	BEZPEČNĚ	-0.30103
-4.430231	BEZPLATNOU	-0.30103
-4.606322	BEZPLATNÉ	-0.30103
-4.606322	BEZPLATNÉMU	-0.30103
-4.606322	BEZPLATNĚ	-0.30103
-4.606322	BEZPOCHYBY	-0.30103
-4.305292	BEZPROSTŘEDNÍ	-0.30103
-4.606322	BEZPROSTŘEDNĚ	-0.30103
-4.606322	BEZVADNÉ	-0.30103
-4.606322	BEZVIZOVÉHO	-0.30103
-4.430231	BEZÚHONNOSTI	-0.30103
-4.606322	BEZÚPLATNÉ	-0.30103
-4.606322	BEZÚPLATNĚ	-0.30103
-4.606322	BEZÚSPĚŠNÉ	-0.30103
-4.606322	BIALA	-0.30103
-4.606322	BIALSKO	-0.30103
-4.430231	BILANCE	-0.30103
-4.606322	BILANCI	-0.30103
-4.606322	BILANČNÍ	-0.30103
-4.606322	BINDTEM	-0.30103
-4.430231	BIOHRNCE	-0.30103
-4.606322	BIOLOGICKOU	-0.30103
-4.606322	BIOLOGICKÝCH	-0.30103
-4.606322	BIONAFTU	-0.30103
-4.606322	BIONAFTY	-0.30103
-4.305292	BIŽUTERIE	-0.30103
-4.606322	BIŽUTERII	-0.30103
-4.430231	BIŽUTERNÍ	-0.30103
-4.208382	BLAŽEK	-0.30103
-4.606322	BLAŽKOVI	-0.30103
-4.606322	BLAŽÍČKOVÉ	-0.30103
-4.606322	BLESKU	-0.30103
-4.305292	BLIŽŠÍ	-0.30103
-4.305292	BLOK	-0.39794
-4.606322	BLOKAČNÍHO	-0.30103
-4.606322	BLOKOVOU	-0.30103
-4.606322	BLOKY	-0.30103
-4.430231	BLOKŮ	-0.30103
-4.606322	BLUMENFELDEM	-0.30103
-4.606322	BLÁZEN	-0.30103
-4.606322	BLÁZNEM	-0.30103
-4.606322	BLÍZKO	-0.30103
-4.606322	BLÍZKOSTI	-0.30103
-4.305292	BLÍZKÉ	-0.30103
-4.606322	BLÍZKÝCH	-0.30103
-4.430231	BLÍŽE	-0.30103
-4.305292	BLÍŽÍ	-0.39794
-4.606322	BLÍŽÍCÍM	-0.30103
-4.606322	BLÝSKÁ	-0.30103
-4.606322	BOCHNÍKU	-0.30103
-4.430231	BODECH	-0.30103
-4.606322	BODEJŤ	-0.30103
-4.606322	BODOVAT	-0.30103
-4.606322	BODOVOU	-0.30103
-4.430231	BODU	-0.4771213
-3.703232	BODY	-0.3735806
-3.731261	BODŮ	-0.3802112
-4.606322	BOEING	-0.30103
-4.606322	BOHATOU	-0.30103
-4.606322	BOHATSTVÍ	-0.30103
-4.305292	BOHATÉ	-0.30103
-4.606322	BOHATÝCH	-0.30103
-4.606322	BOHATŠÍCH	-0.30103
-4.606322	BOHDANEČ	-0.30103
-3.95311	BOHEMIA	-0.3309932
-4.430231	BOHEMIE	-0.30103
-4.606322	BOHULIBÉ	-0.30103
-4.430231	BOHUŽEL	-0.30103
-4.606322	BOHÉM	-0.30103
-4.606322	BOILIES	-0.30103
-4.305292	BOJ	-0.30103
-4.606322	BOJI	-0.30103
-4.606322	BOJOVAT	-0.30103
-4.606322	BOJUJE	-0.30103
-4.606322	BOJUJÍ	-0.30103
-4.606322	BOKU	-0.30103
-4.606322	BOLENÍ	-0.30103
-4.606322	BOLESLAV	-0.30103
-4.606322	BOLÍVII	-0.30103
-4.606322	BOMBA	-0.30103
-4.606322	BOMBAJ	-0.30103
-4.606322	BONBÓNKŮM	-0.30103
-4.606322	BONITU	-0.30103
-4.606322	BONITY	-0.30103
-4.606322	BONUSŮ	-0.30103
-4.208382	BOTY	-0.30103
-4.606322	BOUDREAUA	-0.30103
-4.606322	BOUŘLIVÝ	-0.30103
-4.606322	BOX	-0.30103
-4.606322	BOXERSKÉ	-0.30103
-4.606322	BOXU	-0.30103
-4.606322	BOŘIVOJ	-0.30103
-4.606322	BOŽE	-0.30103
-4.606322	BOŽENA	-0.30103
-4.606322	BOŽKOV	-0.30103
-4.430231	BRALA	-0.30103
-4.606322	BRAMBORY	-0.30103
-4.305292	BRANDY	-0.30103
-4.606322	BRANŽI	-0.30103
-4.606322	BRIGÁDNICKÝCH	-0.30103
-4.606322	BRIGÁDNÍKŮ	-0.30103
-4.305292	BRILIANT	-0.30103
-4.606322	BRILIANTOVÝM	-0.30103
-4.606322	BRILIANTY	-0.30103
-4.606322	BRILIANTŮ	-0.30103
-4.430231	BRILLANT	-0.4771213
-4.606322	BRITSKÉ	-0.30103
-4.606322	BRITSKÉHO	-0.30103
-4.430231	BRITÁNIE	-0.30103
-4.208382	BRITŠTÍ	-0.69897
-4.208382	BRNO	-0.4771212
-4.606322	BRNĚNSKÝ	-0.30103
-4.606322	BRODĚ	-0.30103
-4.606322	BROKEŘI	-0.30103
-4.606322	BRONISLAVA	-0.30103
-4.430231	BROUSÍ	-0.30103
-4.606322	BROUŠENÉ	-0.30103
-4.606322	BROUŠENÍ	-0.30103
-4.430231	BROUŠENÝ	-0.30103
-4.606322	BROŽURY	-0.30103
-4.606322	BRUS	-0.30103
-4.606322	BRUSEM	-0.30103
-4.606322	BRUSLÍTE	-0.30103
-4.430231	BRUSU	-0.30103
-4.606322	BRUSÍRNA	-0.30103
-4.606322	BRZDY	-0.30103
-4.606322	BRZDÍCÍ	-0.30103
-4.606322	BRZKÉ	-0.30103
-4.606322	BRZO	-0.30103
-3.907352	BRZY	-0.30103
-4.606322	BRÁNIT	-0.30103
-4.129201	BRÁNÍ	-0.30103
-4.606322	BRÁNĚNÍ	-0.30103
-4.305292	BRÁT	-0.30103
-4.606322	BRÁZDÍ	-0.30103
-4.606322	BUBÁK	-0.30103
-2.780247	BUDE	-0.3673559
-3.828171	BUDEME	-0.3222193
-4.129201	BUDETE	-0.30103
-4.606322	BUDIŽ	-0.30103
-3.217156	BUDOU	-0.3255729
-4.430231	BUDOUCNOST	-0.4771213
-4.208382	BUDOUCNOSTI	-0.30103
-4.062254	BUDOUCNU	-0.39794
-4.062254	BUDOUCÍ	-0.3424227
-4.430231	BUDOUCÍCH	-0.30103
-4.606322	BUDOUCÍHO	-0.30103
-4.305292	BUDOUCÍM	-0.39794
-4.430231	BUDOVA	-0.30103
-4.606322	BUDOVU	-0.30103
-4.606322	BUDOVÁCH	-0.30103
-4.430231	BUDOVÁNÍ	-0.30103
-4.606322	BUDOVĚ	-0.30103
-4.606322	BUDĚJOVIC	-0.30103
-4.606322	BUKÁCH	-0.30103
-4.606322	BULLETIN	-0.30103
-4.606322	BUNDESBAHN	-0.30103
-4.606322	BUNDY	-0.30103
-4.606322	BUNIČINA	-0.30103
-4.208382	BURZA	-0.30103
-3.761224	BURZE	-0.3881802
-4.606322	BURZOVNICTVÍ	-0.30103
-4.606322	BURZOVNÍ	-0.30103
-4.606322	BURZOVNÍCH	-0.30103
-4.606322	BURZU	-0.30103
-4.062254	BURZY	-0.3424227
-4.208382	BURZÁCH	-0.3679768
-4.606322	BURZÁM	-0.30103
-4.606322	BUSINESS	-0.30103
-3.703232	BUĎ	-0.31627
-4.430231	BUĎTE	-0.30103
-4.430231	BUĎTO	-0.30103
-2.536284	BY	-0.4951658
-3.606322	BYCH	-0.3399481
-3.907352	BYCHOM	-0.5118833
-4.305292	BYDLENÍ	-0.30103
-4.305292	BYDLIŠTĚ	-0.30103
-4.430231	BYDLÍ	-0.30103
-4.430231	BYDLÍM	-0.4771212
-4.606322	BYDLÍME	-0.30103
-3.094439	BYL	-0.3190531
-3.191349	BYLA	-0.3240139
-3.828171	BYLI	-0.3222193
-3.108012	BYLO	-0.3653286
-3.35105	BYLY	-0.3209248
-4.606322	BYROKRATICKÉ	-0.30103
-4.129201	BYSTE	-0.30103
-4.606322	BYSTRÉ	-0.30103
-4.606322	BYSTŘINY	-0.30103
-3.628599	BYT	-0.359022
-4.606322	BYTECH	-0.30103
-4.606322	BYTEM	-0.30103
-4.606322	BYTOST	-0.30103
-4.606322	BYTOSTNÝ	-0.30103
-4.430231	BYTOVÉHO	-0.30103
-4.430231	BYTOVÉMU	-0.30103
-3.628599	BYTU	-0.3424227
-4.129201	BYTY	-0.30103
-4.606322	BYTÍ	-0.30103
-4.208382	BYTĚ	-0.30103
-3.86596	BYTŮ	-0.30103
-4.606322	BYTŮM	-0.30103
-4.062254	BYŤ	-0.30103
-4.606322	BÁJEČNOU	-0.30103
-4.606322	BÁJEČNÝCH	-0.30103
-4.606322	BÁJEČNĚ	-0.30103
-4.606322	BÁSNÍ	-0.30103
-4.062254	BÁZI	-0.8450981
-4.606322	BÍDA	-0.30103
-4.430231	BÍLINĚ	-0.30103
-4.606322	BÍLOU	-0.30103
-4.430231	BÍLÁ	-0.30103
-4.606322	BÍLÉHO	-0.30103
-4.606322	BÍLÝ	-0.30103
-2.890319	BÝT	-0.3419633
-4.430231	BÝVAJÍ	-0.30103
-4.606322	BÝVALÁ	-0.30103
-4.430231	BÝVALÉ	-0.30103
-4.430231	BÝVALÉHO	-0.30103
-4.430231	BÝVALÝ	-0.30103
-4.208382	BÝVALÝCH	-0.4771213
-4.305292	BÝVÁ	-0.30103
-4.430231	BÝVÁVALY	-0.30103
-4.606322	BĚHAL	-0.30103
-3.606322	BĚHEM	-0.3553877
-4.430231	BĚHU	-0.30103
-4.606322	BĚLOSTNÝ	-0.30103
-4.606322	BĚŽENCE	-0.30103
-4.606322	BĚŽET	-0.30103
-4.606322	BĚŽNOU	-0.30103
-4.606322	BĚŽNÁ	-0.30103
-3.95311	BĚŽNÉ	-0.30103
-4.208382	BĚŽNÉHO	-0.3679768
-4.606322	BĚŽNÉM	-0.30103
-4.208382	BĚŽNÝ	-0.30103
-4.208382	BĚŽNÝCH	-0.30103
-3.761224	BĚŽNĚ	-0.4191293
-4.606322	BĚŽNĚJI	-0.30103
-4.606322	BŘEHOVÝ	-0.30103
-4.004262	BŘEMENE	-0.3802112
-4.062254	BŘEMENI	-0.845098
-4.606322	BŘEMENO	-0.30103
-4.129201	BŘEZNA	-0.3521825
-4.606322	BŘEZNU	-0.30103
-4.606322	BŮH	-0.30103
-4.606322	BŮHVÍCO	-0.30103
-4.129201	C	-0.30103
-4.606322	CALGARY	-0.30103
-4.606322	CAPARTI	-0.30103
-4.606322	CARLEM	-0.30103
-4.606322	CASH	-0.30103
-4.606322	CAUSA	-0.30103
-4.606322	CB	-0.30103
-4.430231	CCITT	-0.30103
-4.305292	CECH	-0.30103
-4.606322	CECHU	-0.30103
-4.606322	CEJNŮ	-0.30103
-4.606322	CELEK	-0.30103
-3.793409	CELKEM	-0.3424227
-4.606322	CELKOVOU	-0.30103
-4.430231	CELKOVÁ	-0.30103
-3.95311	CELKOVÉ	-0.3309932
-4.004262	CELKOVÉHO	-0.3357921
-4.606322	CELKOVÉM	-0.30103
-4.606322	CELKOVÉMU	-0.30103
-4.606322	CELKOVÝCH	-0.30103
-4.606322	CELKOVÝMI	-0.30103
-4.430231	CELKOVĚ	-0.30103
-4.430231	CELKY	-0.4771213
-4.606322	CELKŮ	-0.30103
-3.907352	CELNÍ	-0.3590219
-4.305292	CELNÍHO	-0.30103
-4.606322	CELONÁRODNÍ	-0.30103
-4.606322	CELOROČNÍ	-0.30103
-4.606322	CELOSTÁTNÍ	-0.30103
-4.606322	CELOSTÁTNÍHO	-0.30103
-4.606322	CELOSTÁTNÍM	-0.30103
-4.606322	CELOSVĚTOVÝM	-0.30103
-3.564929	CELOU	-0.3802113
-4.606322	CELOŽIVOTNÍ	-0.30103
-4.606322	CELSIA	-0.30103
-4.606322	CELULÓZU	-0.30103
-3.761224	CELÁ	-0.3187588
-3.444954	CELÉ	-0.3565473
-3.828171	CELÉHO	-0.30103
-4.430231	CELÉM	-0.30103
-4.606322	CELÉMU	-0.30103
-3.95311	CELÝ	-0.3309932
-3.65208	CELÝCH	-0.3452336
-4.606322	CELÝM	-0.30103
-4.606322	CELÝMI	-0.30103
-3.585133	CEN	-0.3377528
-3.444954	CENA	-0.3679768
-4.430231	CENAMI	-0.30103
-4.606322	CENILI	-0.30103
-4.606322	CENNÁ	-0.30103
-4.606322	CENNÉ	-0.30103
-4.062254	CENNÝCH	-0.8450981
-4.606322	CENNÝM	-0.30103
-4.606322	CENNÝMI	-0.30103
-4.606322	CENNĚJŠÍ	-0.30103
-3.828171	CENOU	-0.3222193
-4.606322	CENOVEK	-0.30103
-4.208382	CENOVOU	-0.30103
-4.305292	CENOVÁ	-0.30103
-4.430231	CENOVÉ	-0.30103
-4.606322	CENOVÉHO	-0.30103
-4.606322	CENOVÉM	-0.30103
-4.606322	CENOVÝ	-0.30103
-4.606322	CENOVÝM	-0.30103
-4.208382	CENOVĚ	-0.30103
-4.606322	CENTER	-0.30103
-4.606322	CENTIMETRŮ	-0.30103
-4.208382	CENTRA	-0.30103
-4.606322	CENTRECH	-0.30103
-4.430231	CENTREM	-0.30103
-4.129201	CENTRU	-0.3521825
-4.208382	CENTRUM	-0.30103
-4.606322	CENTRY	-0.30103
-4.430231	CENTRÁLA	-0.30103
-4.305292	CENTRÁLNÍ	-0.30103
-3.327569	CENU	-0.4051186
-3.044029	CENY	-0.3873898
-4.430231	CENÁCH	-0.30103
-4.430231	CENÁM	-0.30103
-4.430231	CENÍ	-0.30103
-4.606322	CENÍK	-0.30103
-4.606322	CENÍKEM	-0.30103
-4.606322	CENÍKOVÝCH	-0.30103
-4.430231	CENÍKU	-0.30103
-4.606322	CENÍKY	-0.30103
-4.305292	CENÍKŮ	-0.30103
-4.606322	CENÍM	-0.30103
-3.761224	CENĚ	-0.3388186
-4.606322	CENĚNO	-0.30103
-4.606322	CENĚNÉ	-0.30103
-4.606322	CENĚNÝ	-0.30103
-4.430231	CERTIFIKACE	-0.30103
-4.430231	CERTIFIKACI	-0.30103
-4.305292	CERTIFIKÁT	-0.30103
-4.606322	CERTIFIKÁTEM	-0.30103
-4.129201	CERTIFIKÁTU	-0.3521825
-4.606322	CERTIFIKÁTY	-0.30103
-4.430231	CEST	-0.30103
-3.95311	CESTA	-0.4771212
-4.129201	CESTOU	-0.3521825
-4.606322	CESTOVATELEM	-0.30103
-4.430231	CESTOVEK	-0.30103
-4.606322	CESTOVKOU	-0.30103
-4.430231	CESTOVKY	-0.30103
-3.676903	CESTOVNÍ	-0.5642714
-4.129201	CESTOVNÍCH	-0.7781512
-3.86596	CESTOVNÍHO	-1.041393
-4.305292	CESTOVNÍM	-0.60206
-4.606322	CESTOVNÍMI	-0.30103
-4.129201	CESTU	-0.3521825
-4.606322	CESTUJÍCÍCH	-0.30103
-4.208382	CESTY	-0.3679768
-4.430231	CESTÁCH	-0.30103
-4.606322	CESTÁM	-0.30103
-4.430231	CESTĚ	-0.4771213
-4.606322	CHALUPA	-0.30103
-4.606322	CHALUPĚ	-0.30103
-4.430231	CHARAKTER	-0.30103
-4.606322	CHARAKTEREM	-0.30103
-4.606322	CHARAKTERISTICKÉ	-0.30103
-4.606322	CHARAKTERISTIKOU	-0.30103
-4.430231	CHARAKTERIZUJE	-0.30103
-4.430231	CHARAKTERIZUJTE	-0.30103
-4.606322	CHARAKTERIZUJÍ	-0.30103
-4.305292	CHARAKTERU	-0.30103
-4.606322	CHATA	-0.30103
-4.606322	CHATY	-0.30103
-3.606322	CHCE	-0.30103
-4.004262	CHCEME	-0.30103
-4.062254	CHCETE	-0.30103
-4.208382	CHCI	-0.30103
-4.606322	CHEB	-0.30103
-4.305292	CHEBU	-0.30103
-4.606322	CHEMICKOU	-0.30103
-4.430231	CHEMICKÉ	-0.30103
-4.606322	CHEMICKÉHO	-0.30103
-4.606322	CHEMICKÉM	-0.30103
-4.606322	CHEMICKÝCH	-0.30103
-4.606322	CHEMIE	-0.30103
-4.606322	CHEMIKÁLIE	-0.30103
-4.606322	CHEMIČKOU	-0.30103
-4.606322	CHEMIČKY	-0.30103
-4.062254	CHERRY	-0.30103
-4.430231	CHILE	-0.30103
-4.606322	CHIRADENT	-0.30103
-4.606322	CHLADÍCÍ	-0.30103
-4.062254	CHLEBA	-0.3424227
-4.606322	CHMEL	-0.30103
-4.606322	CHMELE	-0.30103
-4.606322	CHMURNÉ	-0.30103
-4.129201	CHOD	-0.3521825
-4.430231	CHODNÍKŮ	-0.30103
-4.606322	CHODU	-0.30103
-4.430231	CHODURA	-0.30103
-4.606322	CHODÍ	-0.30103
-4.606322	CHOLERIK	-0.30103
-4.606322	CHOPIT	-0.30103
-4.606322	CHOULOSTIVOST	-0.30103
-4.606322	CHOVAJÍ	-0.30103
-4.606322	CHOVAJÍCÍ	-0.30103
-4.305292	CHOVÁ	-0.39794
-3.828171	CHOVÁNÍ	-0.3222193
-4.606322	CHRAMOSTA	-0.30103
-4.606322	CHROMU	-0.30103
-4.430231	CHRYSLER	-0.30103
-4.606322	CHRYSLERA	-0.30103
-4.606322	CHRYSLERU	-0.30103
-4.129201	CHRÁNIT	-0.4259687
-4.129201	CHRÁNĚNY	-0.544068
-4.606322	CHRÁNĚNÝCH	-0.30103
-4.430231	CHTÍT	-0.30103
-3.793409	CHTĚJÍ	-0.30103
-3.907352	CHTĚL	-0.39794
-4.004262	CHTĚLA	-0.3357921
-4.129201	CHTĚLI	-0.3521825
-4.606322	CHTĚLY	-0.30103
-4.606322	CHUDÁK	-0.30103
-4.606322	CHUDŠÍ	-0.30103
-4.430231	CHUŤ	-0.30103
-4.606322	CHVILKOVÉ	-0.30103
-4.430231	CHVOJKA	-0.4771213
-4.606322	CHVÁLENÍ	-0.30103
-4.305292	CHVÁLIT	-0.30103
-4.430231	CHVÍLI	-0.30103
-4.606322	CHYB	-0.30103
-4.606322	CHYBA	-0.30103
-4.606322	CHYBNÉHO	-0.30103
-4.606322	CHYBNĚ	-0.30103
-4.430231	CHYBOU	-0.30103
-4.606322	CHYBU	-0.30103
-4.208382	CHYBY	-0.3679768
-4.129201	CHYBÁCH	-0.544068
-3.95311	CHYBÍ	-0.3309932
-4.606322	CHYBĚ	-0.30103
-4.430231	CHYBĚJÍCÍ	-0.30103
-4.606322	CHYBĚL	-0.30103
-4.430231	CHYBĚLO	-0.30103
-4.606322	CHYBĚT	-0.30103
-4.606322	CHYCENÍ	-0.30103
-4.305292	CHYSTANÉ	-0.30103
-4.305292	CHYSTÁ	-0.30103
-4.606322	CHYTAJÍ	-0.30103
-4.430231	CHYTAT	-0.30103
-4.606322	CHYTILOVÉ	-0.30103
-4.606322	CHYTY	-0.30103
-4.606322	CHYTÁ	-0.30103
-4.305292	CHYTÁNÍ	-0.30103
-4.606322	CHYTÍ	-0.30103
-4.606322	CHÁPAT	-0.30103
-4.430231	CHÁPE	-0.30103
-4.606322	CHÁPU	-0.30103
-4.606322	CHÁPÁNÍ	-0.30103
-3.907352	CIG	-0.30103
-4.606322	CIMRMANOLOGŮ	-0.30103
-4.062254	CIRKA	-0.30103
-4.606322	CIRKUS	-0.30103
-4.606322	CITELNÁ	-0.30103
-4.430231	CITELNÉ	-0.30103
-4.430231	CITELNÝ	-0.30103
-4.430231	CITELNĚ	-0.30103
-4.606322	CITLIVÉHO	-0.30103
-4.305292	CITLIVÉM	-0.60206
-4.430231	CITLIVÝCH	-0.4771212
-4.606322	CITOVANÉHO	-0.30103
-4.606322	CITOVANÝ	-0.30103
-4.430231	CITÁT	-0.30103
-4.430231	CITŮ	-0.4771213
-4.606322	CIVILNÍ	-0.30103
-4.606322	CIVILNÍHO	-0.30103
-4.606322	CIZINCE	-0.30103
-4.430231	CIZINCI	-0.30103
-4.606322	CIZINCŮ	-0.30103
-4.606322	CIZINY	-0.30103
-4.305292	CIZINĚ	-0.30103
-4.606322	CIZOJAZYČNÉ	-0.30103
-4.430231	CIZOZEMCE	-0.4771213
-4.606322	CIZÍ	-0.30103
-4.208382	CIZÍCH	-0.3679768
-4.606322	CIZÍHO	-0.30103
-4.305292	CIZÍM	-0.30103
-4.305292	CLA	-0.39794
-4.305292	CLO	-0.30103
-4.606322	CLU	-0.30103
-4.606322	CLŮM	-0.30103
-4.606322	CMT	-0.30103
-2.824567	CO	-0.3915376
-4.606322	COMMERCIAL	-0.30103
-4.606322	COPAK	-0.30103
-4.606322	CORONA	-0.30103
-4.606322	CORRECTION	-0.30103
-4.606322	COSI	-0.30103
-4.606322	COUVLI	-0.30103
-4.606322	COVINGTON	-0.30103
-3.444954	COŽ	-0.4573772
-4.606322	CROSS	-0.30103
-4.606322	CROWN	-0.30103
-4.606322	CRYSTALEX	-0.30103
-4.606322	CTÍM	-0.30103
-4.606322	CUKROVARY	-0.30103
-4.606322	CUKRU	-0.30103
-4.606322	CUKRÁRNY	-0.30103
-4.430231	CVIČENÍ	-0.30103
-4.606322	CVIČENÍM	-0.30103
-4.606322	CVIČENÍMI	-0.30103
-4.606322	CYKLUS	-0.30103
-4.606322	CÉVY	-0.30103
-4.606322	CÉZANNOVO	-0.30103
-4.305292	CÉČKA	-0.60206
-3.907352	CÍL	-0.5118834
-4.129201	CÍLE	-0.4259687
-3.86596	CÍLEM	-0.4771213
-4.606322	CÍLENOU	-0.30103
-4.430231	CÍLEVĚDOMÝ	-0.4771213
-4.606322	CÍLEVĚDOMĚ	-0.30103
-4.606322	CÍLI	-0.30103
-4.606322	CÍLOVÁ	-0.30103
-4.430231	CÍLOVÉ	-0.30103
-4.305292	CÍLŮ	-0.30103
-4.606322	CÍRKVE	-0.30103
-4.606322	CÍTILA	-0.30103
-4.430231	CÍTIT	-0.30103
-4.606322	CÍTÍ	-0.30103
-4.606322	CÍTÍM	-0.30103
-4.606322	CÍVKU	-0.30103
-4.606322	CÍVKY	-0.30103
-4.129201	D	-0.30103
-4.208382	DAJÍ	-0.30103
-4.606322	DAKLAR	-0.30103
-4.305292	DAL	-0.30103
-4.606322	DALA	-0.30103
-4.305292	DALEKO	-0.30103
-4.606322	DALEKÉ	-0.30103
-4.129201	DALI	-0.30103
-4.208382	DALO	-0.4771213
-4.305292	DALY	-0.30103
-3.026539	DALŠÍ	-0.3368348
-3.327569	DALŠÍCH	-0.3070204
-4.004262	DALŠÍHO	-0.3357921
-3.676903	DALŠÍM	-0.30103
-4.129201	DALŠÍMI	-0.3521825
-4.430231	DALŠÍMU	-0.30103
-4.129201	DANI	-0.544068
-4.606322	DANICA	-0.30103
-4.606322	DANÁ	-0.30103
-4.305292	DANÉ	-0.30103
-4.062254	DANÉM	-0.39794
-4.606322	DANÉMU	-0.30103
-4.004262	DANÍ	-0.3357921
-4.606322	DANÍCH	-0.30103
-4.606322	DANÍM	-0.30103
-4.305292	DANÝ	-0.30103
-4.606322	DANÝCH	-0.30103
-4.606322	DANÝM	-0.30103
-3.363284	DANĚ	-0.49485
-4.606322	DAROVANÁ	-0.30103
-4.606322	DAROVANÉ	-0.30103
-4.606322	DARŮ	-0.30103
-4.004262	DAT	-0.3802112
-4.129201	DATA	-0.30103
-4.430231	DATABANCE	-0.30103
-4.606322	DATABANKOU	-0.30103
-4.606322	DATABANKY	-0.30103
-4.430231	DATABÁZE	-0.30103
-4.606322	DATABÁZI	-0.30103
-4.606322	DATEM	-0.30103
-4.606322	DATOVÁ	-0.30103
-4.606322	DATOVÁN	-0.30103
-4.430231	DATOVÁNÍ	-0.30103
-4.305292	DATU	-0.39794
-4.606322	DATUM	-0.30103
-4.606322	DATUMEM	-0.30103
-4.062254	DAŇ	-0.60206
-4.606322	DAŇOVÁ	-0.30103
-4.004262	DAŇOVÉ	-0.6532125
-4.208382	DAŇOVÉHO	-0.30103
-4.430231	DAŇOVÉM	-0.4771213
-4.606322	DAŇOVÍ	-0.30103
-4.208382	DAŇOVÝ	-0.3679768
-4.004262	DAŇOVÝCH	-0.3802112
-4.606322	DAŘILO	-0.30103
-4.430231	DAŘÍ	-0.30103
-4.606322	DBÁME	-0.30103
-4.062254	DCERA	-0.30103
-4.606322	DCERAMI	-0.30103
-4.606322	DCEROU	-0.30103
-4.430231	DCERY	-0.30103
-4.606322	DCEŘI	-0.30103
-4.606322	DCEŘINY	-0.30103
-4.430231	DE	-0.30103
-4.606322	DEALERY	-0.30103
-4.606322	DEALERŮ	-0.30103
-4.606322	DEALEŘI	-0.30103
-4.606322	DEBATY	-0.30103
-4.606322	DECH	-0.30103
-4.606322	DECHOVÁ	-0.30103
-4.606322	DECI	-0.30103
-4.606322	DEFINICI	-0.30103
-4.606322	DEFINITIVNÍ	-0.30103
-4.606322	DEFINITIVNÍMU	-0.30103
-4.606322	DEFINITIVNĚ	-0.30103
-4.606322	DEFINOVÁNY	-0.30103
-4.606322	DEGUSTACI	-0.30103
-4.606322	DEGUSTAČNÍ	-0.30103
-4.606322	DEJVICÍCH	-0.30103
-4.606322	DEKLAROVANÉMU	-0.30103
-4.606322	DEKORAČNÍ	-0.30103
-4.606322	DEKRETU	-0.30103
-4.606322	DEKY	-0.30103
-4.606322	DELEGACE	-0.30103
-4.606322	DELEGÁTA	-0.30103
-3.828171	DELŠÍ	-0.4522977
-4.606322	DELŠÍHO	-0.30103
-4.606322	DELŠÍMU	-0.30103
-4.606322	DEMOKRATICKÉ	-0.30103
-4.606322	DEMOKRATY	-0.30103
-4.606322	DEMONTOVALI	-0.30103
-3.761224	DEN	-0.3388186
-4.129201	DENNÍ	-0.30103
-4.430231	DENNÍM	-0.30103
-4.062254	DENNĚ	-0.3424227
-4.606322	DENÍKŮ	-0.30103
-4.606322	DEPOZITA	-0.30103
-4.606322	DESATERO	-0.30103
-3.415991	DESET	-0.4416489
-3.731261	DESETI	-0.3174204
-4.606322	DESETIKILOVÝ	-0.30103
-4.208382	DESETILETÍ	-0.30103
-4.606322	DESETILETÍCH	-0.30103
-4.606322	DESETIMILIONOVÝCH	-0.30103
-3.585133	DESETIN	-0.5081555
-4.430231	DESETINA	-0.30103
-4.606322	DESETINU	-0.30103
-3.86596	DESETINY	-0.544068
-4.430231	DESETINÁCH	-0.30103
-4.606322	DESETIPROCENTNÍ	-0.30103
-4.606322	DESIGN	-0.30103
-4.606322	DESPOCIE	-0.30103
-4.004262	DESÍTEK	-0.3802112
-4.606322	DESÍTKAMI	-0.30103
-4.606322	DESÍTKOVÝ	-0.30103
-4.129201	DESÍTKY	-0.30103
-4.430231	DETAIL	-0.30103
-4.606322	DETAILNÍM	-0.30103
-4.430231	DETAILNĚ	-0.30103
-4.606322	DETEKČNÍCH	-0.30103
-4.606322	DETERGENTU	-0.30103
-4.606322	DEUTSCHE	-0.30103
-4.606322	DEUTZ	-0.30103
-2.705955	DEVADESÁT	-0.94939
-4.208382	DEVADESÁTI	-0.4771213
-4.430231	DEVADESÁTÝCH	-0.30103
-4.430231	DEVALVACE	-0.30103
-4.305292	DEVALVACI	-0.39794
-2.705955	DEVATENÁCT	-1.317018
-4.208382	DEVATENÁCTI	-0.4771212
-4.305292	DEVATENÁCTÉHO	-0.39794
-4.606322	DEVIZOU	-0.30103
-4.606322	DEVIZOVÉ	-0.30103
-4.606322	DEVÁTÉHO	-0.30103
-4.004262	DEVÍTI	-0.30103
-3.226111	DEVĚT	-0.5102897
-4.606322	DEZERTNÍ	-0.30103
-4.606322	DEŠTI	-0.30103
-4.606322	DEŠTĚ	-0.30103
-4.606322	DIAGNOSTIKA	-0.30103
-4.606322	DIAKRITIKOU	-0.30103
-3.828171	DIAMANT	-0.3222193
-4.606322	DIAMANTBERICHT	-0.30103
-4.606322	DIAMANTECH	-0.30103
-4.305292	DIAMANTEM	-0.30103
-4.305292	DIAMANTOVÁ	-0.39794
-4.606322	DIAMANTOVÉ	-0.30103
-4.305292	DIAMANTOVÝCH	-0.39794
-3.402202	DIAMANTY	-0.3320642
-3.828171	DIAMANTŮ	-0.3222193
-4.606322	DIDAKTICKÉ	-0.30103
-4.606322	DIETICKÉ	-0.30103
-4.606322	DIFERENCIACÍ	-0.30103
-4.606322	DIFERENCOVANĚ	-0.30103
-4.606322	DIGITALIZACE	-0.30103
-3.907352	DIGITÁLNÍ	-0.5118833
-4.606322	DIGITÁLNÍCH	-0.30103
-4.430231	DIK	-0.4771213
-4.606322	DIKA	-0.30103
-4.606322	DIKOVI	-0.30103
-4.606322	DIKOVÉ	-0.30103
-4.606322	DIKTAFONY	-0.30103
-4.430231	DIKY	-0.30103
-3.95311	DIKŮ	-0.3309932
-4.305292	DIKŮM	-0.39794
-4.606322	DILETANTY	-0.30103
-4.606322	DIMENZE	-0.30103
-4.606322	DIOPTRIÍ	-0.30103
-4.430231	DIPLOMOVÉ	-0.4771212
-4.606322	DISCIPLÍNY	-0.30103
-4.606322	DISKRETANCE	-0.30103
-4.606322	DISKUSI	-0.30103
-4.208382	DISKUSÍ	-0.4771213
-4.606322	DISKUTOVAT	-0.30103
-4.606322	DISKUZI	-0.30103
-4.606322	DISPEČINKEM	-0.30103
-4.606322	DISPLAY	-0.30103
-4.606322	DISPLEJ	-0.30103
-4.606322	DISPLEJI	-0.30103
-4.606322	DISPLEJŮ	-0.30103
-4.430231	DISPONIBILNÍHO	-0.4771212
-3.761224	DISPOZICI	-0.30103
-4.606322	DISTANČNÍ	-0.30103
-4.430231	DISTRIBUCE	-0.30103
-4.305292	DISTRIBUCI	-0.30103
-4.606322	DISTRIBUOVANÁ	-0.30103
-4.606322	DISTRIBUTOROVI	-0.30103
-4.606322	DISTRIBUTORY	-0.30103
-4.606322	DISTRIBUTORŮM	-0.30103
-4.606322	DISTRIBUTOŘI	-0.30103
-4.430231	DISTRIBUČNÍ	-0.30103
-4.305292	DISTRIBUČNÍCH	-0.30103
-4.606322	DIVADELNICTVÍ	-0.30103
-4.606322	DIVADELNÍ	-0.30103
-4.606322	DIVADELNÍCH	-0.30103
-4.430231	DIVADLA	-0.30103
-4.606322	DIVADLE	-0.30103
-4.606322	DIVERZIFIKACE	-0.30103
-4.606322	DIVERZIFIKACI	-0.30103
-4.129201	DIVIDEND	-0.30103
-4.606322	DIVIDENDOVOU	-0.30103
-4.606322	DIVIDENDU	-0.30103
-4.208382	DIVIDENDY	-0.3679768
-4.606322	DIVIL	-0.30103
-4.305292	DIVIT	-0.60206
-4.430231	DIVIZE	-0.30103
-4.606322	DIVIZÍ	-0.30103
-4.305292	DIVU	-0.60206
-4.606322	DIVY	-0.30103
-4.606322	DIVÁCI	-0.30103
-4.606322	DIVÁCKY	-0.30103
-4.430231	DIVÁK	-0.30103
-4.606322	DIVÁKA	-0.30103
-4.606322	DIVÁKŮM	-0.30103
-4.606322	DIVÍ	-0.30103
-4.606322	DLANÍ	-0.30103
-4.606322	DLAŇ	-0.30103
-4.305292	DLAŽBA	-0.30103
-4.305292	DLAŽBOU	-0.30103
-4.430231	DLAŽBU	-0.30103
-4.062254	DLAŽBY	-0.30103
-4.606322	DLAŽDIČKAMI	-0.30103
-4.606322	DLAŽEB	-0.30103
-3.761224	DLOUHO	-0.4191293
-4.606322	DLOUHODOBOU	-0.30103
-4.430231	DLOUHODOBÉ	-0.30103
-4.208382	DLOUHODOBÉHO	-0.30103
-4.606322	DLOUHODOBÉMU	-0.30103
-4.606322	DLOUHODOBÝ	-0.30103
-4.606322	DLOUHODOBÝCH	-0.30103
-4.062254	DLOUHODOBĚ	-0.30103
-4.606322	DLOUHODOBĚJŠÍ	-0.30103
-4.606322	DLOUHODOBĚJŠÍHO	-0.30103
-4.305292	DLOUHOLETÉ	-0.60206
-4.606322	DLOUHOU	-0.30103
-4.305292	DLOUHÁ	-0.30103
-4.430231	DLOUHÉ	-0.30103
-4.606322	DLOUHÉHO	-0.30103
-4.606322	DLOUHÉM	-0.30103
-4.430231	DLOUHÝ	-0.30103
-4.208382	DLUH	-0.30103
-4.430231	DLUHU	-0.30103
-4.208382	DLUHY	-0.30103
-4.430231	DLUHŮ	-0.30103
-4.606322	DLUŽILA	-0.30103
-4.430231	DLUŽNOU	-0.4771212
-4.430231	DLUŽNÉ	-0.30103
-4.606322	DLUŽNÉHO	-0.30103
-4.305292	DLUŽNÍK	-0.30103
-4.606322	DLUŽNÍKY	-0.30103
-4.430231	DLUŽNÍKŮ	-0.30103
-4.606322	DLUŽNÍKŮM	-0.30103
-4.606322	DLUŽÍ	-0.30103
-3.676903	DNE	-0.4771213
-4.305292	DNECH	-0.30103
-3.95311	DNEM	-0.5642715
-3.35105	DNES	-0.3610279
-4.606322	DNEŠKEM	-0.30103
-4.004262	DNEŠNÍ	-0.4393327
-4.305292	DNEŠNÍCH	-0.30103
-4.606322	DNEŠNÍHO	-0.30103
-4.606322	DNEŠNÍM	-0.30103
-4.606322	DNEŠNÍMU	-0.30103
-4.430231	DNI	-0.30103
-4.606322	DNO	-0.30103
-4.062254	DNY	-0.3424227
-4.062254	DNÍ	-0.4771213
-3.761224	DNŮ	-0.3388186
-2.314066	DO	-0.3996136
-4.430231	DOB	-0.30103
-3.703232	DOBA	-0.3735807
-4.305292	DOBOU	-0.30103
-4.606322	DOBRODRUHA	-0.30103
-4.606322	DOBROPIS	-0.30103
-4.129201	DOBROU	-0.30103
-4.606322	DOBROVOLNOSTI	-0.30103
-4.606322	DOBROVOLNÉ	-0.30103
-4.606322	DOBROVOLNĚ	-0.30103
-3.828171	DOBRÁ	-0.3222193
-3.676903	DOBRÉ	-0.3152705
-4.062254	DOBRÉHO	-0.30103
-4.606322	DOBRÉMU	-0.30103
-3.761224	DOBRÝ	-0.3187588
-4.305292	DOBRÝCH	-0.30103
-4.606322	DOBRÝM	-0.30103
-4.305292	DOBRÝMI	-0.60206
-3.327569	DOBU	-0.4051186
-3.444954	DOBY	-0.4227636
-4.606322	DOBÁCH	-0.30103
-4.606322	DOBÁM	-0.30103
-3.33915	DOBĚ	-0.3873898
-3.65208	DOBŘE	-0.3452336
-4.606322	DOBŘÍ	-0.30103
-4.305292	DOCELA	-0.30103
-4.606322	DOCENTŮ	-0.30103
-4.606322	DOCHUCOVANÁ	-0.30103
-4.606322	DOCHÁZELO	-0.30103
-4.430231	DOCHÁZELY	-0.30103
-4.062254	DOCHÁZÍ	-0.39794
-4.606322	DOCHÁZÍM	-0.30103
-4.606322	DODACÍ	-0.30103
-4.606322	DODACÍCH	-0.30103
-4.129201	DODAL	-0.30103
-4.606322	DODALA	-0.30103
-4.062254	DODAT	-0.39794
-4.606322	DODATEČNÉHO	-0.30103
-4.430231	DODATEČNĚ	-0.30103
-4.430231	DODATKEM	-0.30103
-4.305292	DODAVATEL	-0.30103
-4.305292	DODAVATELE	-0.30103
-4.305292	DODAVATELEM	-0.30103
-4.129201	DODAVATELI	-0.30103
-4.606322	DODAVATELSKÉ	-0.30103
-4.606322	DODAVATELSKÝCH	-0.30103
-4.606322	DODAVATELÉ	-0.30103
-4.430231	DODAVATELŮ	-0.4771213
-4.305292	DODEJME	-0.39794
-4.606322	DODNES	-0.30103
-4.606322	DODRŽENÍ	-0.30103
-4.430231	DODRŽET	-0.30103
-4.430231	DODRŽOVÁNÍ	-0.4771213
-4.606322	DODÁ	-0.30103
-4.606322	DODÁNO	-0.30103
-4.430231	DODÁNÍ	-0.4771213
-4.606322	DODÁVAJÍ	-0.30103
-4.606322	DODÁVAJÍCÍ	-0.30103
-4.606322	DODÁVALY	-0.30103
-4.305292	DODÁVAT	-0.30103
-4.062254	DODÁVEK	-0.30103
-4.129201	DODÁVKA	-0.30103
-4.129201	DODÁVKU	-0.3521825
-3.761224	DODÁVKY	-0.3187588
-4.606322	DODÁVKÁCH	-0.30103
-4.129201	DODÁVÁ	-0.30103
-4.606322	DODÁVÁME	-0.30103
-4.606322	DOHADOVÁNÍ	-0.30103
-4.606322	DOHADY	-0.30103
-4.606322	DOHLÉDNU	-0.30103
-3.95311	DOHODA	-0.5642715
-4.430231	DOHODL	-0.30103
-4.606322	DOHODLI	-0.30103
-4.305292	DOHODNOUT	-0.39794
-4.606322	DOHODNUTY	-0.30103
-4.606322	DOHODNUTÉ	-0.30103
-4.606322	DOHODNUTÉM	-0.30103
-4.606322	DOHODOU	-0.30103
-4.208382	DOHODU	-0.3679768
-4.129201	DOHODY	-0.30103
-4.606322	DOHODĚ	-0.30103
-4.430231	DOHROMADY	-0.30103
-4.208382	DOJDE	-0.30103
-4.606322	DOJDEŠ	-0.30103
-4.606322	DOJEM	-0.30103
-4.430231	DOJIVOST	-0.30103
-4.606322	DOJNICE	-0.30103
-4.004262	DOJÍT	-0.5228788
-4.606322	DOJÍŽDĚT	-0.30103
-4.606322	DOKAZUJÍ	-0.30103
-4.606322	DOKAZUJÍCÍCH	-0.30103
-4.430231	DOKLAD	-0.4771213
-4.606322	DOKLADEM	-0.30103
-4.430231	DOKLADU	-0.30103
-4.208382	DOKLADY	-0.3679768
-4.305292	DOKLADŮ	-0.30103
-4.430231	DOKLÁDAJÍ	-0.4771213
-4.606322	DOKLÁDÁNÍ	-0.30103
-4.129201	DOKONALE	-0.4259687
-4.606322	DOKONALÁ	-0.30103
-4.606322	DOKONALÝ	-0.30103
-4.606322	DOKONALÝCH	-0.30103
-3.676903	DOKONCE	-0.3152704
-4.305292	DOKONČENA	-0.30103
-4.430231	DOKONČENY	-0.30103
-4.606322	DOKONČENÍ	-0.30103
-4.606322	DOKONČENÍM	-0.30103
-4.208382	DOKUD	-0.30103
-4.430231	DOKUMENT	-0.30103
-4.606322	DOKUMENTACE	-0.30103
-4.208382	DOKUMENTU	-0.30103
-4.208382	DOKUMENTY	-0.3679768
-4.305292	DOKUMENTŮ	-0.30103
-4.606322	DOKÁZAL	-0.30103
-4.305292	DOKÁZALI	-0.30103
-4.606322	DOKÁZALY	-0.30103
-4.430231	DOKÁZAT	-0.4771213
-4.606322	DOKÁZÁNO	-0.30103
-4.208382	DOKÁŽE	-0.30103
-4.606322	DOKÁŽEME	-0.30103
-4.430231	DOKÁŽU	-0.30103
-4.305292	DOKÁŽÍ	-0.30103
-4.606322	DOLADIT	-0.30103
-4.430231	DOLAR	-0.30103
-4.606322	DOLAROVÝCH	-0.30103
-4.305292	DOLARU	-0.30103
-4.430231	DOLARY	-0.4771213
-3.527141	DOLARŮ	-0.5509074
-4.606322	DOLARŮM	-0.30103
-4.606322	DOLAĎOVÁNÍ	-0.30103
-4.606322	DOLECH	-0.30103
-4.606322	DOLEHLA	-0.30103
-4.606322	DOLEVA	-0.30103
-4.430231	DOLU	-0.4771213
-4.606322	DOLY	-0.30103
-4.305292	DOLŮ	-0.30103
-4.129201	DOMA	-0.3521825
-4.606322	DOMAŽLIC	-0.30103
-4.606322	DOMEK	-0.30103
-4.606322	DOMEM	-0.30103
-4.606322	DOMINANTNÍ	-0.30103
-4.606322	DOMINOVALI	-0.30103
-4.606322	DOMINOVÉHO	-0.30103
-4.430231	DOMINOVÝ	-0.4771213
-4.430231	DOMKU	-0.30103
-4.305292	DOMLUVA	-0.60206
-4.430231	DOMLUVIT	-0.30103
-4.606322	DOMLUVÍ	-0.30103
-4.305292	DOMNÍVAT	-0.60206
-4.430231	DOMNÍVÁM	-0.4771213
-4.606322	DOMNÍVÁME	-0.30103
-4.305292	DOMNÍVÁTE	-0.39794
-4.606322	DOMNĚNCE	-0.30103
-4.606322	DOMNĚNÍ	-0.30103
-4.606322	DOMORODCŮ	-0.30103
-3.828171	DOMU	-0.3467875
-4.129201	DOMY	-0.30103
-4.606322	DOMÁCNOST	-0.30103
-4.430231	DOMÁCNOSTI	-0.30103
-4.305292	DOMÁCNOSTÍ	-0.39794
-3.527141	DOMÁCÍ	-0.3575114
-4.430231	DOMÁCÍCH	-0.30103
-4.208382	DOMÁCÍHO	-0.69897
-4.430231	DOMÁCÍM	-0.30103
-4.606322	DOMÁCÍMU	-0.30103
-4.606322	DOMÁHAT	-0.30103
-4.606322	DOMÁHÁ	-0.30103
-4.129201	DOMĚ	-0.3521825
-3.731261	DOMŮ	-0.3357921
-4.305292	DON	-0.60206
-4.606322	DONA	-0.30103
-4.606322	DOPAD	-0.30103
-4.606322	DOPADL	-0.30103
-4.606322	DOPADNOUT	-0.30103
-4.129201	DOPIS	-0.30103
-4.606322	DOPISEM	-0.30103
-4.305292	DOPISOVATEL	-0.60206
-4.430231	DOPISU	-0.30103
-4.129201	DOPISY	-0.30103
-4.606322	DOPISŮ	-0.30103
-4.606322	DOPLNIL	-0.30103
-4.305292	DOPLNIT	-0.30103
-4.606322	DOPLNĚN	-0.30103
-4.606322	DOPLNĚNY	-0.30103
-4.305292	DOPLŇKY	-0.30103
-4.606322	DOPLŇOVAT	-0.30103
-4.305292	DOPLŇUJÍ	-0.30103
-4.606322	DOPORUČENÉ	-0.30103
-4.606322	DOPORUČENÉHO	-0.30103
-4.062254	DOPORUČENÍ	-0.30103
-4.606322	DOPORUČENÝ	-0.30103
-4.606322	DOPORUČENÝCH	-0.30103
-4.208382	DOPORUČIT	-0.30103
-4.305292	DOPORUČUJE	-0.30103
-4.430231	DOPORUČUJEME	-0.30103
-4.305292	DOPORUČUJI	-0.30103
-4.606322	DOPORUČUJÍ	-0.30103
-4.606322	DOPORUČÍ	-0.30103
-4.305292	DOPOSUD	-0.30103
-4.606322	DOPOUŠTÍ	-0.30103
-4.606322	DOPOUŠTĚLA	-0.30103
-4.606322	DOPRACOVALA	-0.30103
-4.606322	DOPRACOVÁNÍ	-0.30103
-3.95311	DOPRAVA	-0.30103
-4.606322	DOPRAVCŮM	-0.30103
-4.606322	DOPRAVNÉHO	-0.30103
-4.606322	DOPRAVNÍ	-0.30103
-4.305292	DOPRAVNÍCH	-0.30103
-4.606322	DOPRAVNÍM	-0.30103
-4.430231	DOPRAVOU	-0.30103
-4.606322	DOPRAVOVÁNI	-0.30103
-4.208382	DOPRAVU	-0.30103
-3.907352	DOPRAVY	-0.359022
-4.430231	DOPRAVĚ	-0.30103
-4.606322	DOPROVOD	-0.30103
-4.606322	DOPROVODIL	-0.30103
-4.606322	DOPROVODIT	-0.30103
-4.606322	DOPROVODNÉ	-0.30103
-4.606322	DOPROVODNÝM	-0.30103
-4.606322	DOPROVÁZEN	-0.30103
-4.129201	DOPUSTILI	-0.4259687
-4.606322	DORAZILY	-0.30103
-4.606322	DORAZÍ	-0.30103
-4.606322	DOROSTOU	-0.30103
-4.430231	DORUČEN	-0.30103
-4.606322	DORUČENO	-0.30103
-3.86596	DORUČENÍ	-0.4771213
-4.606322	DORUČIT	-0.30103
-4.430231	DORUČÍ	-0.30103
-4.606322	DOSAHOVAL	-0.30103
-4.430231	DOSAHOVAT	-0.30103
-4.430231	DOSAHU	-0.4771213
-4.129201	DOSAHUJE	-0.3521825
-4.606322	DOSAHUJEME	-0.30103
-4.129201	DOSAHUJÍ	-0.30103
-4.062254	DOSAVADNÍ	-0.3424227
-4.430231	DOSAVADNÍCH	-0.30103
-4.606322	DOSAVADNÍHO	-0.30103
-4.305292	DOSAVADNÍM	-0.30103
-3.95311	DOSLOVA	-0.30103
-4.606322	DOSPĚLA	-0.30103
-4.430231	DOSPĚLÁCI	-0.30103
-4.430231	DOSPĚLÉ	-0.4771213
-4.430231	DOSPĚLÍ	-0.4771213
-3.460194	DOST	-0.3710679
-3.907352	DOSTAL	-0.3590219
-4.129201	DOSTALA	-0.3521825
-4.305292	DOSTALI	-0.30103
-4.606322	DOSTALO	-0.30103
-4.606322	DOSTALY	-0.30103
-4.004262	DOSTANE	-0.30103
-4.305292	DOSTANETE	-0.30103
-4.606322	DOSTANEŠ	-0.30103
-4.305292	DOSTANOU	-0.30103
-4.606322	DOSTANU	-0.30103
-4.129201	DOSTAT	-0.30103
-4.004262	DOSTATEK	-0.30103
-4.606322	DOSTATEČNOU	-0.30103
-4.606322	DOSTATEČNÁ	-0.30103
-4.606322	DOSTATEČNÉHO	-0.30103
-4.606322	DOSTATEČNÝ	-0.30103
-4.606322	DOSTATEČNÝCH	-0.30103
-4.606322	DOSTATEČNÝM	-0.30103
-4.208382	DOSTATEČNĚ	-0.30103
-4.606322	DOSTAVIL	-0.30103
-4.430231	DOSTI	-0.30103
-4.606322	DOSTOJÍTE	-0.30103
-4.062254	DOSTUPNÉ	-0.4771213
-4.606322	DOSTUPNĚJŠÍ	-0.30103
-4.305292	DOSTÁNÍ	-0.30103
-4.430231	DOSTÁVAJÍ	-0.30103
-4.606322	DOSTÁVAL	-0.30103
-4.430231	DOSTÁVALI	-0.30103
-4.208382	DOSTÁVÁ	-0.30103
-4.305292	DOSTÁVÁME	-0.39794
-3.703232	DOSUD	-0.30103
-4.606322	DOSÁHL	-0.30103
-4.062254	DOSÁHLA	-0.30103
-4.062254	DOSÁHLY	-0.30103
-4.606322	DOSÁHNE	-0.30103
-4.062254	DOSÁHNOUT	-0.30103
-4.606322	DOTACE	-0.30103
-4.606322	DOTACI	-0.30103
-4.430231	DOTACÍ	-0.30103
-4.606322	DOTACÍM	-0.30103
-4.305292	DOTAZ	-0.30103
-4.606322	DOTAZEM	-0.30103
-4.606322	DOTAZU	-0.30103
-4.606322	DOTAZY	-0.30103
-4.606322	DOTOVANÉHO	-0.30103
-4.606322	DOTOVAT	-0.30103
-4.606322	DOTOVÁN	-0.30103
-4.606322	DOTOVÁNY	-0.30103
-4.606322	DOTVÁŘÍ	-0.30103
-4.606322	DOTYČNOU	-0.30103
-4.606322	DOTYČNÁ	-0.30103
-4.208382	DOTYČNÝ	-0.30103
-4.606322	DOTÝKAJÍ	-0.30103
-4.606322	DOUFÁ	-0.30103
-4.430231	DOUFÁM	-0.4771213
-4.606322	DOVEDNOSTI	-0.30103
-4.606322	DOVEDNOSTÍ	-0.30103
-4.305292	DOVEDOU	-0.39794
-4.606322	DOVEZENÉ	-0.30103
-4.606322	DOVEZENÉHO	-0.30103
-4.606322	DOVEZENÝ	-0.30103
-4.606322	DOVNITŘ	-0.30103
-4.430231	DOVOLAT	-0.30103
-4.305292	DOVOLENOU	-0.30103
-4.430231	DOVOLENÉ	-0.30103
-4.606322	DOVOLILO	-0.30103
-4.004262	DOVOLIT	-0.3357921
-4.606322	DOVOLUJE	-0.30103
-4.606322	DOVOLÍ	-0.30103
-4.062254	DOVOZ	-0.30103
-4.208382	DOVOZCE	-0.30103
-4.606322	DOVOZEM	-0.30103
-4.208382	DOVOZNÍ	-0.30103
-4.606322	DOVOZNÍHO	-0.30103
-4.062254	DOVOZU	-0.3424227
-4.606322	DOVÁŽEJÍ	-0.30103
-4.606322	DOVÁŽEN	-0.30103
-4.606322	DOVÁŽENÉ	-0.30103
-4.606322	DOVÁŽENÝ	-0.30103
-4.606322	DOVÁŽENÝCH	-0.30103
-4.606322	DOVÁŽENÝM	-0.30103
-4.430231	DOVÁŽÍ	-0.30103
-4.606322	DOVÍME	-0.30103
-4.606322	DOVĚDĚLI	-0.30103
-4.606322	DOVĚDĚT	-0.30103
-4.606322	DOZNÍVAJÍCÍ	-0.30103
-4.606322	DOZNÍVÁNÍ	-0.30103
-4.606322	DOZORČÍ	-0.30103
-4.606322	DOZVONIL	-0.30103
-4.430231	DOZVÍTE	-0.30103
-4.606322	DOZVĚDĚLY	-0.30103
-4.606322	DOČASNÉ	-0.30103
-4.606322	DOČASNĚ	-0.30103
-4.430231	DOČETL	-0.30103
-4.606322	DOČKAT	-0.30103
-4.305292	DOČTETE	-0.39794
-4.606322	DOŇU	-0.30103
-4.606322	DOŠEL	-0.30103
-3.907352	DOŠLO	-0.359022
-4.606322	DOŽADOVAT	-0.30103
-4.606322	DOŽIVOTNÍHO	-0.30103
-3.703232	DPH	-0.3521825
-4.606322	DRAH	-0.30103
-4.606322	DRAHOKAMY	-0.30103
-4.606322	DRAHOU	-0.30103
-3.95311	DRAHÉ	-0.3679768
-4.606322	DRAHÝCH	-0.30103
-4.606322	DRAHÝMI	-0.30103
-4.606322	DRAKY	-0.30103
-4.606322	DRAKŮ	-0.30103
-4.606322	DRAMATICKÝM	-0.30103
-4.606322	DRANCOVÁNÍ	-0.30103
-4.606322	DRASTIČTĚJŠÍ	-0.30103
-4.606322	DRAZE	-0.30103
-4.606322	DRAZÍ	-0.30103
-4.606322	DRAŽBA	-0.30103
-4.606322	DRAŽBOU	-0.30103
-4.430231	DRAŽBU	-0.30103
-3.907352	DRAŽBY	-0.30103
-4.606322	DRAŽBĚ	-0.30103
-4.430231	DRAŽEB	-0.30103
-4.305292	DRAŽEBNÍ	-0.39794
-4.606322	DRAŽEBNÍHO	-0.30103
-4.430231	DRAŽENÝCH	-0.30103
-4.606322	DRAŽIT	-0.30103
-4.606322	DRAŽITELI	-0.30103
-3.907352	DRAŽŠÍ	-0.447158
-4.606322	DRCENÉHO	-0.30103
-4.606322	DROBENÍM	-0.30103
-4.606322	DROBKY	-0.30103
-4.606322	DROBNOST	-0.30103
-4.606322	DROBNÁ	-0.30103
-4.305292	DROBNÉ	-0.30103
-4.606322	DROBNÉHO	-0.30103
-4.430231	DROBNÍ	-0.4771213
-4.606322	DROBNÝ	-0.30103
-4.430231	DROBNÝCH	-0.30103
-4.606322	DROBNÝM	-0.30103
-4.606322	DROBNÝMI	-0.30103
-4.606322	DROBNĚJŠÍ	-0.30103
-4.430231	DROGERIE	-0.30103
-4.305292	DROGERII	-0.39794
-4.606322	DROGERIÍ	-0.30103
-4.606322	DROGISTICKÉ	-0.30103
-4.430231	DRUCKER	-0.30103
-4.606322	DRUCKEROVA	-0.30103
-4.062254	DRUH	-0.30103
-4.004262	DRUHOU	-0.3802112
-4.606322	DRUHOVOST	-0.30103
-4.305292	DRUHU	-0.30103
-3.907352	DRUHY	-0.30103
-4.004262	DRUHÁ	-0.3802112
-3.444954	DRUHÉ	-0.5797836
-4.004262	DRUHÉHO	-0.30103
-4.208382	DRUHÉM	-0.3679768
-4.606322	DRUHÉMU	-0.30103
-3.828171	DRUHÝ	-0.3222193
-4.430231	DRUHÝCH	-0.30103
-4.305292	DRUHÝM	-0.30103
-4.062254	DRUHŮ	-0.30103
-4.606322	DRUZÍ	-0.30103
-4.606322	DRUZÍCH	-0.30103
-4.305292	DRUŽICOVÉ	-0.39794
-4.606322	DRUŽSTEVNÍCH	-0.30103
-4.606322	DRUŽSTEVNÍK	-0.30103
-4.606322	DRUŽSTEVNÍM	-0.30103
-4.305292	DRUŽSTVA	-0.30103
-4.129201	DRUŽSTVO	-0.30103
-4.606322	DRUŽSTVU	-0.30103
-4.606322	DRÁHA	-0.30103
-4.129201	DRÁHY	-0.30103
-4.606322	DRÁTY	-0.30103
-4.606322	DRÁŽE	-0.30103
-4.606322	DRŮBEŽE	-0.30103
-4.606322	DRŽENÍ	-0.30103
-4.430231	DRŽET	-0.30103
-4.606322	DRŽITELÉ	-0.30103
-4.606322	DRŽÁKU	-0.30103
-4.606322	DRŽÍ	-0.30103
-3.907352	DUBNA	-0.30103
-4.606322	DUBNOVÉ	-0.30103
-4.208382	DUBNU	-0.30103
-4.305292	DUCHA	-0.39794
-4.430231	DUCHU	-0.30103
-4.606322	DUPIDLA	-0.30103
-4.606322	DUSNO	-0.30103
-4.606322	DUŠAN	-0.30103
-4.430231	DUŠEVNÍ	-0.30103
-4.606322	DUŠEVNÍHO	-0.30103
-4.606322	DUŠIČEK	-0.30103
-4.606322	DUŠÍ	-0.30103
-2.890319	DVA	-0.5170492
-3.094439	DVACET	-0.5392691
-3.492379	DVACETI	-0.3928003
-4.606322	DVACETIKORUNOVÉ	-0.30103
-4.004262	DVACÁTÉHO	-0.3802112
-4.606322	DVACÍTI	-0.30103
-3.95311	DVAKRÁT	-0.30103
-3.65208	DVANÁCT	-0.4057654
-4.430231	DVANÁCTI	-0.30103
-4.606322	DVANÁCTIHODINOVOU	-0.30103
-4.606322	DVANÁCTILETÝCH	-0.30103
-4.606322	DVANÁCTKRÁT	-0.30103
-4.305292	DVANÁCTÝ	-0.60206
-4.305292	DVEŘE	-0.39794
-4.606322	DVEŘMI	-0.30103
-4.305292	DVOJNÁSOBEK	-0.30103
-4.606322	DVOJNÁSOBNÉ	-0.30103
-4.606322	DVOJVÝSTAVA	-0.30103
-4.606322	DVOJÍHO	-0.30103
-4.606322	DVOJČATA	-0.30103
-3.316288	DVOU	-0.3912066
-4.430231	DVOULETÉ	-0.30103
-4.606322	DVOULETÉM	-0.30103
-4.606322	DVOULŮŽKOVÝCH	-0.30103
-4.606322	DVOUPOKOJOVÝ	-0.30103
-4.606322	DVOUSTRANĚ	-0.30103
-4.606322	DVOUTISÍCOVÉ	-0.30103
-3.020862	DVĚ	-0.5099138
-3.828171	DVĚMA	-0.3222193
-4.606322	DVĚSTĚPROCENTNÍ	-0.30103
-4.305292	DYBA	-0.30103
-4.430231	DYBY	-0.30103
-4.606322	DYNAMICKOU	-0.30103
-4.430231	DYNAMICKY	-0.4771213
-4.606322	DYNAMICKÉMU	-0.30103
-3.95311	DÁ	-0.30103
-4.062254	DÁL	-0.3424227
-3.363284	DÁLE	-0.372912
-4.129201	DÁLNIC	-0.3521825
-4.129201	DÁLNICE	-0.544068
-4.208382	DÁLNICI	-0.30103
-4.430231	DÁLNICÍCH	-0.30103
-4.606322	DÁLNIČNÍ	-0.30103
-4.606322	DÁLNÉHO	-0.30103
-4.606322	DÁLNÝM	-0.30103
-4.606322	DÁLŠÍ	-0.30103
-4.606322	DÁME	-0.30103
-4.305292	DÁMSKOU	-0.39794
-4.430231	DÁMSKÉ	-0.30103
-4.606322	DÁMY	-0.30103
-4.606322	DÁN	-0.30103
-4.430231	DÁNA	-0.30103
-4.129201	DÁNO	-0.30103
-4.430231	DÁNOVÉ	-0.30103
-4.305292	DÁNSKA	-0.30103
-4.606322	DÁNSKEM	-0.30103
-4.606322	DÁNSKO	-0.30103
-4.305292	DÁNSKU	-0.30103
-4.430231	DÁNSKÁ	-0.30103
-4.208382	DÁNSKÉ	-0.3679768
-4.430231	DÁNSKÉHO	-0.30103
-4.606322	DÁNSKÉM	-0.30103
-4.430231	DÁNSKÝ	-0.30103
-3.95311	DÁNSKÝCH	-0.4771213
-4.606322	DÁNSKÝM	-0.30103
-4.606322	DÁNU	-0.30103
-4.606322	DÁREK	-0.30103
-4.606322	DÁRKOVÉHO	-0.30103
-4.606322	DÁRKY	-0.30103
-3.731261	DÁT	-0.30103
-4.606322	DÁTE	-0.30103
-4.208382	DÁVAJÍ	-0.30103
-4.606322	DÁVALA	-0.30103
-4.606322	DÁVALO	-0.30103
-4.305292	DÁVAT	-0.30103
-4.606322	DÁVEJTE	-0.30103
-4.606322	DÁVEK	-0.30103
-4.430231	DÁVKOVÁNÍ	-0.30103
-4.606322	DÁVKU	-0.30103
-4.305292	DÁVKY	-0.39794
-4.606322	DÁVNO	-0.30103
-4.606322	DÁVNÝM	-0.30103
-3.95311	DÁVÁ	-0.3679768
-4.606322	DÁVÁM	-0.30103
-4.606322	DÁVÁNI	-0.30103
-4.129201	DÉLCE	-0.3521825
-4.062254	DÉLE	-0.3424227
-4.606322	DÉLKA	-0.30103
-4.305292	DÉLKU	-0.30103
-4.606322	DÉLKÁCH	-0.30103
-3.828171	DÍKY	-0.30103
-4.305292	DÍLA	-0.30103
-4.606322	DÍLCE	-0.30103
-4.606322	DÍLECH	-0.30103
-4.129201	DÍLEM	-0.3521825
-4.606322	DÍLENSKÉHO	-0.30103
-4.430231	DÍLNY	-0.30103
-4.606322	DÍLNÁCH	-0.30103
-4.606322	DÍLNĚ	-0.30103
-4.430231	DÍLO	-0.30103
-4.430231	DÍLY	-0.30103
-4.430231	DÍLČÍ	-0.30103
-4.430231	DÍLČÍCH	-0.30103
-4.606322	DÍLŮ	-0.30103
-4.606322	DÍLŮM	-0.30103
-4.208382	DÍTĚ	-0.3679768
-4.430231	DÍVAT	-0.30103
-4.606322	DÍVENKA	-0.30103
-4.606322	DÍVKAMI	-0.30103
-4.606322	DÍVÁ	-0.30103
-4.606322	DÍVÁTE	-0.30103
-4.305292	DĚDA	-0.30103
-4.606322	DĚDEČKOVI	-0.30103
-4.606322	DĚJ	-0.30103
-4.430231	DĚJE	-0.30103
-4.606322	DĚJIN	-0.30103
-4.430231	DĚJŮ	-0.4771213
-4.606322	DĚLAJÍ	-0.30103
-4.606322	DĚLALI	-0.30103
-4.606322	DĚLANÉ	-0.30103
-4.062254	DĚLAT	-0.30103
-4.606322	DĚLENÍ	-0.30103
-4.606322	DĚLILA	-0.30103
-4.208382	DĚLIT	-0.30103
-4.208382	DĚLNÍCI	-0.69897
-4.606322	DĚLNÍK	-0.30103
-4.606322	DĚLNÍKŮ	-0.30103
-4.208382	DĚLÁ	-0.30103
-4.430231	DĚLÁME	-0.30103
-4.129201	DĚLÍ	-0.30103
-4.606322	DĚNÍ	-0.30103
-4.606322	DĚSIVOU	-0.30103
-4.430231	DĚTEM	-0.30103
-3.731261	DĚTI	-0.3357921
-4.606322	DĚTMI	-0.30103
-4.606322	DĚTSKOU	-0.30103
-4.606322	DĚTSKÁ	-0.30103
-4.062254	DĚTSKÉ	-0.30103
-4.606322	DĚTSKÉHO	-0.30103
-4.606322	DĚTSTVÍ	-0.30103
-4.305292	DĚTÍ	-0.39794
-4.606322	DŘENĚ	-0.30103
-4.305292	DŘEVA	-0.30103
-4.606322	DŘEVEM	-0.30103
-4.606322	DŘEVO	-0.30103
-4.606322	DŘEVĚNÉ	-0.30103
-4.606322	DŘEVĚNÝCH	-0.30103
-4.606322	DŘÍV	-0.30103
-3.606322	DŘÍVE	-0.3399481
-4.606322	DŘÍVĚJŠKU	-0.30103
-4.430231	DŘÍVĚJŠÍ	-0.30103
-4.606322	DŘÍVĚJŠÍCH	-0.30103
-4.606322	DŘÍVĚJŠÍHO	-0.30103
-4.606322	DŘÍVĚJŠÍM	-0.30103
-4.305292	DŮCHODCE	-0.30103
-4.606322	DŮCHODCŮ	-0.30103
-4.606322	DŮCHODEM	-0.30103
-4.606322	DŮCHODOVÝ	-0.30103
-4.606322	DŮCHODU	-0.30103
-4.606322	DŮCHODĚ	-0.30103
-4.430231	DŮKAZŮ	-0.30103
-4.606322	DŮKLADNĚ	-0.30103
-4.062254	DŮLEŽITOU	-0.30103
-4.208382	DŮLEŽITÁ	-0.30103
-3.793409	DŮLEŽITÉ	-0.3424227
-4.606322	DŮLEŽITÉHO	-0.30103
-4.208382	DŮLEŽITÝ	-0.3679768
-4.606322	DŮLEŽITÝCH	-0.30103
-4.208382	DŮLEŽITÝM	-0.30103
-4.606322	DŮLEŽITĚJŠÍ	-0.30103
-4.208382	DŮM	-0.30103
-4.305292	DŮRAZ	-0.30103
-4.606322	DŮRAZNĚJI	-0.30103
-4.606322	DŮRAZU	-0.30103
-4.208382	DŮSLEDCÍCH	-0.30103
-4.606322	DŮSLEDEK	-0.30103
-4.305292	DŮSLEDKEM	-0.30103
-4.208382	DŮSLEDKY	-0.30103
-4.305292	DŮSLEDKŮ	-0.30103
-4.606322	DŮSLEDNÁ	-0.30103
-4.430231	DŮSLEDNĚ	-0.30103
-4.606322	DŮSLEDNĚJŠÍ	-0.30103
-4.606322	DŮSTOJNÝ	-0.30103
-4.004262	DŮVOD	-0.4393327
-4.305292	DŮVODEM	-0.30103
-4.606322	DŮVODNOSTI	-0.30103
-4.606322	DŮVODNÁ	-0.30103
-4.129201	DŮVODU	-0.30103
-4.062254	DŮVODY	-0.3424227
-3.828171	DŮVODŮ	-0.3467875
-4.606322	DŮVĚRNOU	-0.30103
-4.606322	DŮVĚRNÉHO	-0.30103
-4.430231	DŮVĚRU	-0.4771213
-4.430231	DŮVĚRY	-0.30103
-4.606322	DŮVĚRYHODNOST	-0.30103
-4.606322	DŮVĚŘIVOSTÍ	-0.30103
-4.606322	DŮVĚŘIVÝCH	-0.30103
-4.606322	DŽÍNSOVÝ	-0.30103
-4.606322	E	-0.30103
-4.606322	ECM	-0.30103
-3.95311	EFEKT	-0.3309932
-4.606322	EFEKTEM	-0.30103
-4.430231	EFEKTIVNOST	-0.30103
-4.606322	EFEKTIVNOSTI	-0.30103
-4.430231	EFEKTIVNÍ	-0.30103
-4.606322	EFEKTIVNÍCH	-0.30103
-4.606322	EFEKTNÍMI	-0.30103
-4.606322	EFEKTU	-0.30103
-4.606322	EKOAGROBANKY	-0.30103
-4.305292	EKOLOGICKY	-0.30103
-4.305292	EKOLOGICKÉ	-0.30103
-4.606322	EKOLOGICKÉHO	-0.30103
-4.430231	EKOLOGICKÝCH	-0.30103
-4.430231	EKOLOGICKÝM	-0.30103
-4.606322	EKOLOGICKÝMI	-0.30103
-4.430231	EKOLOGIE	-0.30103
-4.606322	EKONMICKÁ	-0.30103
-4.606322	EKONOMECH	-0.30103
-3.95311	EKONOMICE	-0.3309932
-4.129201	EKONOMICKOU	-0.30103
-4.305292	EKONOMICKY	-0.30103
-3.703232	EKONOMICKÉ	-0.3735807
-4.129201	EKONOMICKÉHO	-0.7781513
-4.606322	EKONOMICKÉM	-0.30103
-4.606322	EKONOMICKÉMU	-0.30103
-4.062254	EKONOMICKÝ	-0.3424227
-4.305292	EKONOMICKÝCH	-0.30103
-4.430231	EKONOMICKÝM	-0.30103
-4.606322	EKONOMICKÝMI	-0.30103
-4.606322	EKONOMIK	-0.30103
-4.062254	EKONOMIKA	-0.30103
-4.606322	EKONOMIKAMI	-0.30103
-4.430231	EKONOMIKOU	-0.30103
-3.95311	EKONOMIKU	-0.3309932
-3.65208	EKONOMIKY	-0.3452337
-4.430231	EKONOMIKÁCH	-0.4771212
-4.606322	EKONOMIZUJÍCÍMU	-0.30103
-4.606322	EKONOMKA	-0.30103
-4.606322	EKONOMOVÉ	-0.30103
-4.606322	EKONOMY	-0.30103
-4.606322	EKOVARS	-0.30103
-4.606322	ELECTRIC	-0.30103
-4.606322	ELEGANTNÍ	-0.30103
-4.062254	ELEKTRICKÉ	-0.4771213
-4.430231	ELEKTRICKÉHO	-0.30103
-4.606322	ELEKTRICKÉMU	-0.30103
-4.606322	ELEKTRICKÝCH	-0.30103
-4.606322	ELEKTROENERGETICE	-0.30103
-4.606322	ELEKTROENERGETIKA	-0.30103
-4.606322	ELEKTROENERGETIKY	-0.30103
-4.606322	ELEKTROIZOLAČNÍ	-0.30103
-4.606322	ELEKTROMAGNETICKÉHO	-0.30103
-4.606322	ELEKTROMĚRŮ	-0.30103
-4.430231	ELEKTRONICKÉ	-0.30103
-4.606322	ELEKTRONICKÉHO	-0.30103
-4.606322	ELEKTRONICKÝCH	-0.30103
-4.430231	ELEKTRONIKU	-0.30103
-4.430231	ELEKTROTECHNICKÉHO	-0.30103
-4.430231	ELEKTROTECHNICKÝ	-0.30103
-4.606322	ELEKTROTECHNICKÝCH	-0.30103
-4.062254	ELEKTRÁREN	-0.30103
-4.606322	ELEKTRÁRENSKÝCH	-0.30103
-4.606322	ELEKTRÁRENSKÝMI	-0.30103
-4.606322	ELEKTRÁRENSTVÍ	-0.30103
-4.606322	ELEKTRÁRNA	-0.30103
-4.606322	ELEKTRÁRNU	-0.30103
-3.95311	ELEKTRÁRNY	-0.4149733
-4.606322	ELEKTŘINA	-0.30103
-4.606322	ELEKTŘINOU	-0.30103
-4.606322	ELEKTŘINU	-0.30103
-3.793409	ELEKTŘINY	-0.3679768
-4.430231	ELIMINOVAL	-0.4771213
-4.606322	ELIMINOVAT	-0.30103
-4.606322	EM	-0.30103
-4.606322	EMANOVSKÝ	-0.30103
-4.606322	EMINENTNÍ	-0.30103
-4.606322	EMISÍ	-0.30103
-4.606322	EMITOVANÝCH	-0.30103
-4.606322	ENERGETICI	-0.30103
-4.606322	ENERGETICKY	-0.30103
-4.606322	ENERGETICKÁ	-0.30103
-4.430231	ENERGETICKÉ	-0.30103
-4.129201	ENERGETICKÝCH	-0.30103
-4.606322	ENERGETICKÝM	-0.30103
-4.606322	ENERGETICKÝMI	-0.30103
-3.95311	ENERGETIKA	-0.30103
-4.606322	ENERGETIKOU	-0.30103
-4.430231	ENERGETIKU	-0.30103
-4.062254	ENERGIE	-0.30103
-4.606322	ENERGII	-0.30103
-4.004262	ENERGIÍ	-0.4393327
-4.606322	ENERGOVARS	-0.30103
-4.606322	ENORMNÍ	-0.30103
-4.606322	EPOŠE	-0.30103
-4.606322	ERGONOMII	-0.30103
-4.606322	ERROR	-0.30103
-4.606322	ESKALACI	-0.30103
-4.606322	ESKONTOVAT	-0.30103
-4.606322	ESO	-0.30103
-4.606322	ESPRITEM	-0.30103
-4.606322	ESTETICKÉ	-0.30103
-4.606322	ESTETICKÝMI	-0.30103
-4.430231	ESTETIKOU	-0.4771213
-4.430231	ESTETIKU	-0.4771213
-4.606322	ESTETIČTÍ	-0.30103
-4.606322	ETABLUJE	-0.30103
-4.606322	ETAP	-0.30103
-4.606322	ETAPA	-0.30103
-4.606322	ETERNITU	-0.30103
-4.606322	ETIKOU	-0.30103
-4.606322	EU	-0.30103
-4.606322	EUROASIJSKÉ	-0.30103
-4.606322	EUROTEL	-0.30103
-4.430231	EUROTELU	-0.30103
-4.606322	EVENTUALITAMI	-0.30103
-4.606322	EVENTUÁLNÍ	-0.30103
-4.430231	EVENTUÁLNÍM	-0.30103
-4.606322	EVETUÁLNĚ	-0.30103
-3.95311	EVIDENCE	-0.69897
-4.305292	EVIDENCI	-0.30103
-4.606322	EVIDOVAT	-0.30103
-4.606322	EVIDUJE	-0.30103
-4.305292	EVROPA	-0.30103
-4.606322	EVROPOU	-0.30103
-4.606322	EVROPSKÁ	-0.30103
-3.86596	EVROPSKÉ	-0.4259687
-4.606322	EVROPSKÝ	-0.30103
-4.062254	EVROPSKÝCH	-0.30103
-4.606322	EVROPSKÝM	-0.30103
-4.208382	EVROPU	-0.4771213
-4.062254	EVROPY	-0.3424227
-4.062254	EVROPĚ	-0.3424227
-4.430231	EXISTENCE	-0.30103
-4.062254	EXISTENCI	-0.3424227
-4.430231	EXISTENCÍ	-0.30103
-4.606322	EXISTOVALA	-0.30103
-4.430231	EXISTOVAT	-0.30103
-3.793409	EXISTUJE	-0.3203352
-4.062254	EXISTUJÍ	-0.30103
-4.606322	EXISTUJÍCÍHO	-0.30103
-4.606322	EXISTUJÍCÍM	-0.30103
-4.606322	EXPANZIVNÍ	-0.30103
-4.430231	EXPEDICE	-0.30103
-4.606322	EXPEDUJE	-0.30103
-4.606322	EXPEDUJEME	-0.30103
-4.606322	EXPERT	-0.30103
-4.430231	EXPERTEM	-0.30103
-4.430231	EXPERTI	-0.30103
-4.430231	EXPERTY	-0.30103
-4.606322	EXPERTÍZU	-0.30103
-4.606322	EXPONOVANÉ	-0.30103
-4.004262	EXPORT	-0.3357921
-4.606322	EXPORTEM	-0.30103
-4.305292	EXPORTNÍ	-0.30103
-4.606322	EXPORTNÍCH	-0.30103
-4.606322	EXPORTNÍHO	-0.30103
-4.606322	EXPORTNĚ	-0.30103
-4.606322	EXPORTU	-0.30103
-4.606322	EXPORTÉRŮ	-0.30103
-4.606322	EXPORTÉRŮM	-0.30103
-4.606322	EXPOZICE	-0.30103
-4.606322	EXTERNÍCH	-0.30103
-4.606322	EXTROVERT	-0.30103
-4.430231	EXTRÉMNÍ	-0.30103
-4.606322	EXTRÉMNĚ	-0.30103
-4.430231	F	-0.30103
-4.606322	FACTO	-0.30103
-4.305292	FAKSIMILE	-0.30103
-4.606322	FAKT	-0.30103
-4.606322	FAKTA	-0.30103
-4.606322	FAKTICKY	-0.30103
-4.606322	FAKTOR	-0.30103
-4.606322	FAKTOREM	-0.30103
-4.208382	FAKTORY	-0.30103
-4.208382	FAKTORŮ	-0.30103
-4.208382	FAKTU	-0.3679768
-4.606322	FAKTURACE	-0.30103
-4.430231	FAKTURY	-0.30103
-4.430231	FAKULTNÍ	-0.30103
-4.606322	FAKULTY	-0.30103
-4.430231	FAKULTĚ	-0.4771212
-4.606322	FALEŠNÝCH	-0.30103
-4.606322	FALZIFIKÁT	-0.30103
-4.606322	FALZIFIKÁTU	-0.30103
-4.606322	FALZIFIKÁTY	-0.30103
-4.606322	FALZIFIKÁTŮ	-0.30103
-4.305292	FANTAZIE	-0.30103
-4.606322	FANTAZII	-0.30103
-4.606322	FAREM	-0.30103
-4.606322	FARMACEUTICKÉ	-0.30103
-4.606322	FARMACEUTIKA	-0.30103
-4.606322	FARMACIE	-0.30103
-4.606322	FARMĚ	-0.30103
-4.606322	FAVORIT	-0.30103
-4.606322	FAVORITA	-0.30103
-4.606322	FAVORITY	-0.30103
-4.430231	FAVORITŮM	-0.30103
-3.95311	FAX	-0.30103
-4.208382	FAXEM	-0.30103
-4.606322	FAXIMILE	-0.30103
-4.606322	FAXIMILIE	-0.30103
-4.606322	FAXOVACÍCH	-0.30103
-4.606322	FAXOVACÍHO	-0.30103
-4.606322	FAXOVÉHO	-0.30103
-4.606322	FAXOVÝ	-0.30103
-4.305292	FAXOVÝCH	-0.30103
-4.305292	FAXU	-0.30103
-4.606322	FAXUJTE	-0.30103
-4.305292	FAXY	-0.30103
-4.129201	FEDERACE	-0.30103
-4.606322	FENOMÉN	-0.30103
-4.606322	FESTIVALY	-0.30103
-4.606322	FIGUROVALY	-0.30103
-4.606322	FILLA	-0.30103
-4.305292	FILM	-0.30103
-4.606322	FILMAŘSKÝ	-0.30103
-4.606322	FILMOVOU	-0.30103
-4.430231	FILMOVÉ	-0.30103
-4.208382	FILMU	-0.30103
-4.430231	FILMY	-0.30103
-4.430231	FILMŮ	-0.30103
-4.606322	FILMŮM	-0.30103
-4.606322	FILOZOFICKÉ	-0.30103
-4.305292	FILOZOFIE	-0.30103
-4.430231	FILOZOFII	-0.30103
-4.606322	FILOZOFIÍ	-0.30103
-4.606322	FILTRACI	-0.30103
-4.606322	FINANCOVÁNY	-0.30103
-4.430231	FINANCOVÁNÍ	-0.30103
-4.129201	FINANCÍ	-0.30103
-4.430231	FINANČNICTVÍ	-0.30103
-3.294568	FINANČNÍ	-0.4376127
-4.004262	FINANČNÍCH	-0.30103
-4.062254	FINANČNÍHO	-0.4771212
-4.208382	FINANČNÍM	-0.30103
-4.606322	FINANČNÍMU	-0.30103
-4.129201	FINANČNĚ	-0.30103
-4.606322	FINAČNÍ	-0.30103
-4.606322	FINSKA	-0.30103
-4.430231	FINSKO	-0.30103
-4.606322	FINSKÉM	-0.30103
-4.606322	FINÁLNÍ	-0.30103
-4.606322	FINÁLNÍHO	-0.30103
-4.606322	FINÁLNÍM	-0.30103
-3.151477	FIREM	-0.4573772
-4.208382	FIREMNÍ	-0.30103
-4.430231	FIREMNÍCH	-0.30103
-4.606322	FIREMNÍHO	-0.30103
-4.305292	FIREMNÍM	-0.30103
-4.606322	FIREMNÍMI	-0.30103
-3.151477	FIRMA	-0.3407394
-4.305292	FIRMAMI	-0.30103
-4.062254	FIRMOU	-0.39794
-3.731261	FIRMU	-0.3357921
-2.903031	FIRMY	-0.4005642
-4.606322	FIRMÁCH	-0.30103
-4.004262	FIRMÁM	-0.4393327
-3.475988	FIRMĚ	-0.3388186
-4.606322	FIT	-0.30103
-4.606322	FITNESS	-0.30103
-4.430231	FIXNÍ	-0.4771213
-4.606322	FLEGMATIK	-0.30103
-4.606322	FLORENSKÉHO	-0.30103
-4.606322	FLORENUS	-0.30103
-4.606322	FLOW	-0.30103
-4.606322	FLUKTUACE	-0.30103
-4.606322	FLÁKAT	-0.30103
-4.606322	FOJTOVÁ	-0.30103
-4.606322	FOLKLÓRU	-0.30103
-4.004262	FOND	-0.3357921
-4.305292	FONDEM	-0.30103
-3.793409	FONDU	-0.3679768
-4.062254	FONDY	-0.30103
-4.004262	FONDŮ	-0.4393327
-4.430231	FONDŮM	-0.4771213
-4.606322	FOREM	-0.30103
-4.606322	FORINT	-0.30103
-4.606322	FORINTU	-0.30103
-4.606322	FORINTŮ	-0.30103
-4.430231	FORMA	-0.30103
-4.606322	FORMALITAMI	-0.30103
-4.606322	FORMANOVĚ	-0.30103
-3.907352	FORMED	-0.30103
-3.907352	FORMOU	-0.30103
-4.004262	FORMU	-0.30103
-4.606322	FORMULOVÁNA	-0.30103
-4.430231	FORMULÁŘ	-0.30103
-4.430231	FORMULÁŘE	-0.30103
-4.129201	FORMY	-0.3521825
-4.606322	FORMÁCH	-0.30103
-4.606322	FORMÁLNOSTÍ	-0.30103
-4.606322	FORMÁLNÍHO	-0.30103
-4.606322	FORMÁT	-0.30103
-4.606322	FORMÁTU	-0.30103
-4.430231	FORMĚ	-0.30103
-4.606322	FORNAX	-0.30103
-4.430231	FORUM	-0.30103
-4.606322	FOTBALEM	-0.30103
-4.606322	FOTO	-0.30103
-4.606322	FOTOGRAFIEMI	-0.30103
-4.305292	FOTOGRAFIÍ	-0.30103
-4.305292	FRANCIE	-0.30103
-4.606322	FRANCOUZSKÉ	-0.30103
-4.606322	FRANCOUZSKÉHO	-0.30103
-4.606322	FRANCOUZSKÝCH	-0.30103
-4.606322	FRANCOUZSKÝM	-0.30103
-4.606322	FRANCOUZŠTINĚ	-0.30103
-4.606322	FRANCÍCH	-0.30103
-4.606322	FRANK	-0.30103
-4.430231	FRANKŮ	-0.30103
-4.305292	FRANTIŠEK	-0.30103
-4.606322	FRED	-0.30103
-4.606322	FREKVENCE	-0.30103
-4.606322	FRESEK	-0.30103
-4.430231	FRESKY	-0.30103
-4.606322	FRONTĚ	-0.30103
-4.606322	FRÁZÍ	-0.30103
-4.606322	FRÉZ	-0.30103
-4.606322	FRÉZOVACÍ	-0.30103
-4.606322	FRÉZY	-0.30103
-4.606322	FRÝDKU	-0.30103
-4.208382	FT	-0.3679768
-4.606322	FUNGOVAL	-0.30103
-4.606322	FUNGOVÁNÍ	-0.30103
-4.305292	FUNGUJE	-0.30103
-4.606322	FUNGUJÍCÍ	-0.30103
-4.129201	FUNKCE	-0.30103
-4.430231	FUNKCI	-0.30103
-4.129201	FUNKCÍ	-0.30103
-4.606322	FUNKČNOST	-0.30103
-4.606322	FUNKČNÍ	-0.30103
-4.606322	FURIANTSKÝMI	-0.30103
-4.208382	FYZICKÁ	-0.69897
-4.305292	FYZICKÉ	-0.39794
-4.430231	FYZICKÝCH	-0.30103
-4.606322	FÁMY	-0.30103
-4.606322	FÁZE	-0.30103
-4.606322	FÓBISTICKÉM	-0.30103
-4.606322	FÓLIE	-0.30103
-4.606322	FÓLII	-0.30103
-4.430231	FÓLIÍ	-0.4771213
-4.606322	FÚZOVAT	-0.30103
-4.606322	G	-0.30103
-4.208382	GALA	-0.30103
-4.430231	GALE	-0.30103
-4.062254	GALERIE	-0.3424227
-4.305292	GALERII	-0.30103
-4.606322	GALERIÍCH	-0.30103
-4.606322	GAN	-0.30103
-4.606322	GARANTOVANÝCH	-0.30103
-4.305292	GARANTOVAT	-0.30103
-4.606322	GARDE	-0.30103
-4.606322	GARÁŽI	-0.30103
-4.430231	GATT	-0.30103
-4.606322	GAUMONTEM	-0.30103
-4.606322	GAUMONTU	-0.30103
-4.606322	GEBAROWSKÝ	-0.30103
-4.606322	GEL	-0.30103
-4.606322	GENECH	-0.30103
-4.430231	GENERACE	-0.30103
-4.430231	GENERAL	-0.30103
-4.606322	GENERÁLNÍ	-0.30103
-4.062254	GENERÁLNÍM	-0.845098
-4.606322	GENERÁLNÍMI	-0.30103
-4.606322	GENETICKÉ	-0.30103
-4.606322	GEORGE	-0.30103
-4.606322	GERALD	-0.30103
-4.606322	GERALDA	-0.30103
-4.305292	GERALDEM	-0.60206
-4.606322	GERALDU	-0.30103
-4.606322	GIGANT	-0.30103
-4.129201	GIOVANNI	-0.30103
-4.606322	GIOVANNIHO	-0.30103
-4.606322	GLOBALIZUJÍ	-0.30103
-4.606322	GOGH	-0.30103
-4.606322	GOGHŮ	-0.30103
-4.606322	GOLF	-0.30103
-4.430231	GORENJE	-0.30103
-4.430231	GRADA	-0.30103
-4.606322	GRADACI	-0.30103
-4.606322	GRAFECH	-0.30103
-4.606322	GRAFICKY	-0.30103
-4.606322	GRAFICKÉHO	-0.30103
-4.606322	GRAFICKÝCH	-0.30103
-4.606322	GRAFIKA	-0.30103
-4.606322	GRAFIKONU	-0.30103
-4.606322	GRAFY	-0.30103
-4.606322	GRAMÁŽ	-0.30103
-4.606322	GRAMŮ	-0.30103
-4.606322	GRATULACÍ	-0.30103
-4.606322	GREENWALD	-0.30103
-4.430231	GREENWALDA	-0.30103
-4.305292	GREENWALDEM	-0.30103
-4.606322	GREENWALDOVI	-0.30103
-4.606322	GROUP	-0.30103
-4.606322	GROŠŮ	-0.30103
-4.606322	GRUNTOVÁNÍ	-0.30103
-4.208382	GSR	-0.3679768
-4.606322	GULÁŠŮ	-0.30103
-4.606322	GUMOVÉ	-0.30103
-4.606322	GYMNASION	-0.30103
-4.606322	GÉNIE	-0.30103
-4.606322	GÉNIOVÉ	-0.30103
-4.305292	H	-0.39794
-4.606322	HADR	-0.30103
-4.606322	HAK	-0.30103
-4.606322	HALE	-0.30103
-4.606322	HALÁCH	-0.30103
-4.208382	HALÉŘŮ	-0.30103
-4.606322	HANDLEM	-0.30103
-4.430231	HANÁ	-0.4771213
-4.606322	HAVLÍČKOVĚ	-0.30103
-4.606322	HAVÁRIE	-0.30103
-4.606322	HAVÁRIÍ	-0.30103
-3.86596	HDP	-0.3853509
-4.606322	HEKTARŮ	-0.30103
-4.430231	HELENA	-0.30103
-4.430231	HELIGR	-0.4771213
-4.606322	HELLY	-0.30103
-4.606322	HELÉNISTICKÉ	-0.30103
-4.606322	HEMATOLOGICKÉHO	-0.30103
-4.430231	HER	-0.30103
-4.606322	HEREC	-0.30103
-4.606322	HERECKÉ	-0.30103
-4.606322	HESLEM	-0.30103
-4.606322	HEŘMANŮV	-0.30103
-4.606322	HIPPOKRATES	-0.30103
-4.606322	HISTORICKÉ	-0.30103
-4.606322	HISTORICKÉHO	-0.30103
-4.305292	HISTORICKÝCH	-0.39794
-4.606322	HISTORIE	-0.30103
-4.305292	HISTORII	-0.30103
-4.606322	HISTORIKŮ	-0.30103
-4.606322	HISTORKA	-0.30103
-4.606322	HIT	-0.30103
-4.606322	HLAD	-0.30103
-4.606322	HLADINA	-0.30103
-4.606322	HLADINU	-0.30103
-4.606322	HLASITÉ	-0.30103
-4.430231	HLASY	-0.30103
-4.606322	HLASŮM	-0.30103
-4.129201	HLAV	-0.30103
-4.606322	HLAVA	-0.30103
-4.606322	HLAVIČKY	-0.30103
-3.703232	HLAVNÍ	-0.31627
-3.95311	HLAVNÍCH	-0.30103
-4.430231	HLAVNÍHO	-0.30103
-3.95311	HLAVNÍM	-0.30103
-4.430231	HLAVNÍMI	-0.30103
-3.430231	HLAVNĚ	-0.4490925
-4.430231	HLAVU	-0.30103
-4.129201	HLAVY	-0.3521825
-4.129201	HLEDAJÍ	-0.30103
-4.606322	HLEDAJÍCÍCH	-0.30103
-4.606322	HLEDAL	-0.30103
-4.430231	HLEDALI	-0.30103
-4.129201	HLEDAT	-0.30103
-4.606322	HLEDAČI	-0.30103
-3.86596	HLEDISKA	-0.30103
-4.129201	HLEDÁ	-0.30103
-4.305292	HLEDÁNÍ	-0.30103
-4.606322	HLEDÍME	-0.30103
-4.606322	HLINÍKOVÉ	-0.30103
-4.606322	HLOUPOSTÍ	-0.30103
-4.606322	HLUBINNOU	-0.30103
-4.430231	HLUBOKO	-0.4771213
-4.305292	HLUBOKÉ	-0.30103
-4.606322	HLUBOKÝ	-0.30103
-4.606322	HLUBOKÝMI	-0.30103
-4.430231	HLUBŠÍ	-0.30103
-4.606322	HLÁSIL	-0.30103
-4.606322	HMOTNOST	-0.30103
-4.430231	HMOTNOSTI	-0.30103
-4.606322	HMOTNOSTÍ	-0.30103
-4.129201	HMOTNÉ	-0.7781513
-4.606322	HMOTNĚ	-0.30103
-4.430231	HMOTY	-0.30103
-3.907352	HNED	-0.3590219
-4.606322	HNEDKA	-0.30103
-4.606322	HNOJIVA	-0.30103
-4.430231	HNP	-0.30103
-4.606322	HNÍZDŮM	-0.30103
-4.430231	HNĚDÉHO	-0.30103
-3.444954	HO	-0.3174204
-4.606322	HOBBY	-0.30103
-4.606322	HODIL	-0.30103
-3.703232	HODIN	-0.4259687
-4.606322	HODINA	-0.30103
-4.606322	HODINOU	-0.30103
-4.129201	HODINU	-0.4259687
-4.430231	HODINY	-0.30103
-4.430231	HODINÁCH	-0.30103
-4.606322	HODINÁŘSKÉ	-0.30103
-4.606322	HODLAJÍ	-0.30103
-4.305292	HODLÁ	-0.30103
-4.606322	HODLÁM	-0.30103
-4.430231	HODLÁTE	-0.30103
-4.606322	HODNOCEN	-0.30103
-4.606322	HODNOCENI	-0.30103
-4.606322	HODNOCENY	-0.30103
-4.606322	HODNOCENÉ	-0.30103
-3.793409	HODNOCENÍ	-0.3679768
-4.606322	HODNOCENÍM	-0.30103
-4.606322	HODNOT	-0.30103
-4.004262	HODNOTA	-0.30103
-4.606322	HODNOTIT	-0.30103
-4.430231	HODNOTNÉ	-0.30103
-4.606322	HODNOTNÝCH	-0.30103
-3.828171	HODNOTU	-0.30103
-3.86596	HODNOTY	-0.3853509
-4.606322	HODNOTÁCH	-0.30103
-4.606322	HODNOTÍM	-0.30103
-4.606322	HODNOTÍTE	-0.30103
-4.129201	HODNOTĚ	-0.30103
-3.676903	HODNĚ	-0.3484547
-4.606322	HODÍ	-0.30103
-4.606322	HOJNĚ	-0.30103
-4.606322	HOKEJI	-0.30103
-4.606322	HOKEJOVÉ	-0.30103
-4.606322	HOLANDSKÁ	-0.30103
-4.606322	HOLANDSKÉHO	-0.30103
-4.606322	HOLDENEM	-0.30103
-4.606322	HOLDING	-0.30103
-4.208382	HOLDINGU	-0.30103
-4.430231	HOLKA	-0.30103
-4.606322	HOLT	-0.30103
-4.606322	HOLÍ	-0.30103
-4.606322	HOME	-0.30103
-4.606322	HOMOLCE	-0.30103
-4.606322	HOMOLKA	-0.30103
-4.606322	HOMOLOGOVÁNA	-0.30103
-4.606322	HONBA	-0.30103
-4.606322	HONOLULU	-0.30103
-4.305292	HONOROVÁN	-0.60206
-4.430231	HONORÁŘE	-0.4771213
-4.305292	HOR	-0.30103
-4.606322	HOREČKY	-0.30103
-4.606322	HORIZONTU	-0.30103
-4.606322	HORIZONTÁLNÍ	-0.30103
-4.606322	HORKO	-0.30103
-4.606322	HORKÝM	-0.30103
-4.606322	HOROLEZEC	-0.30103
-4.606322	HORSKÝCH	-0.30103
-4.606322	HORY	-0.30103
-4.606322	HORÁCH	-0.30103
-4.208382	HORŠÍ	-0.30103
-4.606322	HORŠÍCH	-0.30103
-4.606322	HORŠÍM	-0.30103
-4.208382	HOSPODAŘENÍ	-0.30103
-4.606322	HOSPODAŘÍCÍCH	-0.30103
-4.129201	HOSPODÁŘSKOU	-0.3521825
-4.305292	HOSPODÁŘSKY	-0.39794
-4.430231	HOSPODÁŘSKÁ	-0.30103
-4.062254	HOSPODÁŘSKÉ	-0.3424227
-4.305292	HOSPODÁŘSKÝ	-0.39794
-4.208382	HOSPODÁŘSKÝCH	-0.3679768
-3.564929	HOSPODÁŘSTVÍ	-0.4393327
-4.606322	HOSPODĚ	-0.30103
-4.606322	HOSTESKY	-0.30103
-4.606322	HOSTINSKÝ	-0.30103
-4.606322	HOSTY	-0.30103
-4.606322	HOSTŮM	-0.30103
-4.430231	HOTEL	-0.30103
-4.606322	HOTELECH	-0.30103
-4.430231	HOTELEM	-0.30103
-4.606322	HOTELNICTVÍ	-0.30103
-4.606322	HOTELOVÉ	-0.30103
-4.430231	HOTELOVÝCH	-0.30103
-4.129201	HOTELU	-0.30103
-4.129201	HOTELY	-0.30103
-4.606322	HOTELÍCH	-0.30103
-4.129201	HOTELŮ	-0.3521825
-4.430231	HOTELŮM	-0.30103
-4.305292	HOTOVÉ	-0.39794
-4.606322	HOTOVÝ	-0.30103
-4.606322	HOTOVÝMI	-0.30103
-4.606322	HOTOVĚ	-0.30103
-4.606322	HOUBAŘENÍ	-0.30103
-4.606322	HOUSTNE	-0.30103
-4.208382	HOVOR	-0.3679768
-4.606322	HOVORKOVÁ	-0.30103
-4.606322	HOVORU	-0.30103
-4.606322	HOVORŮ	-0.30103
-4.305292	HOVOŘIL	-0.39794
-4.062254	HOVOŘILI	-0.3424227
-4.606322	HOVOŘILO	-0.30103
-4.305292	HOVOŘIT	-0.30103
-4.208382	HOVOŘÍ	-0.30103
-4.606322	HOVOŘÍM	-0.30103
-4.606322	HOVOŘÍME	-0.30103
-4.305292	HOW	-0.30103
-4.305292	HOŘEŇOVSKÁ	-0.30103
-4.305292	HOŘÁKŮ	-0.30103
-4.305292	HRA	-0.30103
-4.606322	HRABOVÉ	-0.30103
-4.606322	HRABÁK	-0.30103
-4.606322	HRABŮVKA	-0.30103
-4.430231	HRAD	-0.30103
-4.305292	HRADEC	-0.60206
-4.606322	HRADECH	-0.30103
-4.606322	HRADIL	-0.30103
-4.430231	HRADIT	-0.30103
-4.305292	HRADÍ	-0.30103
-4.208382	HRAJE	-0.30103
-4.606322	HRAJI	-0.30103
-4.606322	HRAJÍ	-0.30103
-4.305292	HRANIC	-0.30103
-4.606322	HRANICE	-0.30103
-4.208382	HRANICI	-0.30103
-4.430231	HRANICÍCH	-0.30103
-4.606322	HRANIČNÍCH	-0.30103
-4.606322	HRANU	-0.30103
-4.606322	HRANÍ	-0.30103
-4.606322	HRAVĚ	-0.30103
-4.606322	HRAZEN	-0.30103
-4.606322	HRAZENY	-0.30103
-4.606322	HRAČEK	-0.30103
-4.606322	HRD	-0.30103
-4.606322	HRDINNÉ	-0.30103
-4.606322	HRDINNÝCH	-0.30103
-4.606322	HRNČÍŘOVÁ	-0.30103
-4.606322	HROMADNÉHO	-0.30103
-4.606322	HROMADNÝ	-0.30103
-4.606322	HROMADU	-0.30103
-4.430231	HROMADY	-0.30103
-4.606322	HROMADÁCH	-0.30103
-4.606322	HROMÁDKU	-0.30103
-4.305292	HROU	-0.39794
-4.606322	HROUZEM	-0.30103
-4.606322	HROZBOU	-0.30103
-4.606322	HROZÍ	-0.30103
-4.606322	HRST	-0.30103
-4.430231	HRU	-0.30103
-3.907352	HRUBÉHO	-0.60206
-4.606322	HRUBÉMU	-0.30103
-4.430231	HRUBĚ	-0.30103
-3.907352	HRY	-0.30103
-4.606322	HRÁDEK	-0.30103
-4.606322	HRÁLI	-0.30103
-4.606322	HRÁT	-0.30103
-4.606322	HUDBA	-0.30103
-4.606322	HUDBOU	-0.30103
-4.606322	HUDBU	-0.30103
-4.430231	HUDEBNÍ	-0.30103
-4.606322	HUDEČKA	-0.30103
-4.606322	HUGO	-0.30103
-4.606322	HUMOR	-0.30103
-4.606322	HUSITSKÉ	-0.30103
-4.606322	HUSTOTĚ	-0.30103
-4.606322	HUTNICKÝ	-0.30103
-4.606322	HUTNÍ	-0.30103
-4.430231	HUTNÍM	-0.4771213
-4.430231	HUTÍ	-0.30103
-4.430231	HUTĚ	-0.30103
-4.606322	HUČÍ	-0.30103
-4.430231	HUŤ	-0.4771213
-4.606322	HYBŠE	-0.30103
-4.430231	HYGIENICKÉ	-0.30103
-4.606322	HYGIENICKÉHO	-0.30103
-4.606322	HYGIENIK	-0.30103
-4.430231	HYGIENY	-0.30103
-4.606322	HÁBÍKOVÁ	-0.30103
-4.606322	HÁDAJÍ	-0.30103
-4.606322	HÁVU	-0.30103
-4.606322	HÁZENÍ	-0.30103
-4.606322	HŘE	-0.30103
-4.606322	HŘEBÍK	-0.30103
-4.606322	HŘIŠTĚ	-0.30103
-4.606322	HŘÁT	-0.30103
-4.606322	HŘÍDELÍ	-0.30103
-4.606322	HŮŘ	-0.30103
-4.430231	HŮŘE	-0.30103
-2.239899	I	-0.4253846
-4.606322	IACOCCOU	-0.30103
-4.606322	IBERIA	-0.30103
-4.606322	IDENTIFIKACE	-0.30103
-4.430231	IDENTIFIKACI	-0.30103
-4.430231	IDENTIFIKAČNÍ	-0.30103
-4.606322	IDENTIFIKOVALI	-0.30103
-4.606322	IDENTIFIKOVAT	-0.30103
-4.606322	IDENTIFIKOVÁNA	-0.30103
-4.606322	IDENTIFIKUJE	-0.30103
-4.305292	IDEÁLNÍ	-0.39794
-4.606322	IDEÁLNÍCH	-0.30103
-4.606322	IDEÁLNÍM	-0.30103
-4.606322	IGNORANTA	-0.30103
-4.606322	IH	-0.30103
-4.129201	IHNED	-0.544068
-4.606322	ILJA	-0.30103
-4.606322	ILUZORNÍ	-0.30103
-4.606322	ILUZÍ	-0.30103
-4.430231	IMAGE	-0.4771213
-4.606322	IMPORTNÍ	-0.30103
-4.606322	IMPROVIZACE	-0.30103
-4.606322	IMPULZ	-0.30103
-4.606322	IMPULZY	-0.30103
-4.606322	IMPULZŮ	-0.30103
-4.606322	INAUGUROVÁN	-0.30103
-4.430231	INCOMMINGU	-0.30103
-4.606322	INDEXU	-0.30103
-4.606322	INDEXY	-0.30103
-4.606322	INDICKÁ	-0.30103
-4.606322	INDIKÁTOREM	-0.30103
-4.004262	INDIVIDUÁLNÍ	-0.30103
-4.606322	INFEKČNÍ	-0.30103
-4.004262	INFLACE	-0.3357921
-4.430231	INFLACI	-0.30103
-4.305292	INFLACÍ	-0.30103
-4.606322	INFLAČNÍ	-0.30103
-4.606322	INFLAČNÍMU	-0.30103
-4.606322	INFORM	-0.30103
-3.415991	INFORMACE	-0.39794
-4.430231	INFORMACEMI	-0.30103
-4.305292	INFORMACI	-0.39794
-3.628599	INFORMACÍ	-0.3774184
-4.430231	INFORMACÍM	-0.30103
-4.606322	INFORMATIKY	-0.30103
-3.95311	INFORMAČNÍ	-0.3309932
-4.430231	INFORMAČNÍCH	-0.30103
-4.606322	INFORMAČNÍM	-0.30103
-4.606322	INFORMOVALA	-0.30103
-4.606322	INFORMOVALI	-0.30103
-4.606322	INFORMOVANOSTI	-0.30103
-4.606322	INFORMOVÁNY	-0.30103
-4.430231	INFORMUJE	-0.30103
-4.606322	INFORMUJÍ	-0.30103
-4.305292	INFRASTRUKTURY	-0.30103
-4.430231	INICIATIVA	-0.30103
-4.606322	INICIATIVNÍ	-0.30103
-4.606322	INICIOVAT	-0.30103
-4.606322	INICIOVÁNÍ	-0.30103
-4.606322	INICIUJÍ	-0.30103
-4.606322	INICIÁTORA	-0.30103
-4.606322	INK	-0.30103
-4.606322	INKASOVALI	-0.30103
-4.606322	INKASOVANÝCH	-0.30103
-4.606322	INOVAČNÍM	-0.30103
-4.606322	INOVOVALI	-0.30103
-4.606322	INSPEKCE	-0.30103
-4.606322	INSPEKTORÁTEM	-0.30103
-4.606322	INSPIRACÍ	-0.30103
-4.606322	INSPIRATIVNÍ	-0.30103
-4.430231	INSPIROVAT	-0.30103
-4.606322	INSPIRUJÍCÍHO	-0.30103
-4.062254	INSTALACE	-0.39794
-4.606322	INSTALACI	-0.30103
-4.606322	INSTALOVALI	-0.30103
-4.606322	INSTALOVANÉ	-0.30103
-4.606322	INSTALOVANÝ	-0.30103
-4.129201	INSTITUCE	-0.30103
-4.305292	INSTITUCEMI	-0.60206
-4.606322	INSTITUCIONÁLNÍ	-0.30103
-4.430231	INSTITUCÍ	-0.4771213
-4.606322	INSTITUCÍM	-0.30103
-4.129201	INSTITUT	-0.30103
-4.606322	INSTITUTECH	-0.30103
-4.606322	INSTITUTU	-0.30103
-4.606322	INSTRUMENTS	-0.30103
-4.606322	INTEGROVANÝM	-0.30103
-4.430231	INTENZITA	-0.30103
-4.606322	INTENZITOU	-0.30103
-4.606322	INTENZITU	-0.30103
-4.606322	INTENZITY	-0.30103
-4.606322	INTENZIVNÍHO	-0.30103
-4.606322	INTENZIVNĚ	-0.30103
-4.606322	INTERHOTELŮ	-0.30103
-4.430231	INTERNATIONAL	-0.30103
-4.606322	INTERNÍ	-0.30103
-4.606322	INTERVENCE	-0.30103
-4.606322	INTROVERT	-0.30103
-4.606322	INVALIDY	-0.30103
-4.606322	INVENTURU	-0.30103
-4.430231	INVESTIC	-0.30103
-3.606322	INVESTICE	-0.4357286
-4.606322	INVESTICEMI	-0.30103
-4.430231	INVESTICI	-0.30103
-3.703232	INVESTIČNÍ	-0.39794
-4.004262	INVESTIČNÍCH	-0.4393327
-4.606322	INVESTIČNÍHO	-0.30103
-4.606322	INVESTIČNÍM	-0.30103
-4.606322	INVESTIČNÍMI	-0.30103
-4.606322	INVESTIČNĚ	-0.30103
-4.430231	INVESTOR	-0.30103
-4.430231	INVESTORA	-0.30103
-4.606322	INVESTORSKÉ	-0.30103
-4.606322	INVESTORSKÉHO	-0.30103
-4.430231	INVESTORY	-0.30103
-3.95311	INVESTORŮ	-0.3309932
-4.430231	INVESTORŮM	-0.30103
-4.305292	INVESTOVAL	-0.30103
-4.606322	INVESTOVALA	-0.30103
-4.305292	INVESTOVALI	-0.30103
-4.208382	INVESTOVANÉHO	-0.69897
-3.65208	INVESTOVAT	-0.49485
-3.676903	INVESTOVÁNÍ	-0.5642715
-4.208382	INVESTOŘI	-0.30103
-4.430231	INVESTUJE	-0.30103
-4.305292	INVESTUJTE	-0.39794
-4.606322	INZERCE	-0.30103
-4.606322	INZEROVANÉ	-0.30103
-4.606322	INZERÁT	-0.30103
-4.606322	INZERÁTU	-0.30103
-4.606322	INZERÁTY	-0.30103
-4.430231	INZERÁTŮ	-0.30103
-4.606322	INŽENÝRSKÉ	-0.30103
-4.606322	INŽENÝRSKÉM	-0.30103
-4.606322	IRENA	-0.30103
-4.606322	IRONIE	-0.30103
-4.606322	ITALSKÁ	-0.30103
-4.606322	ITALSKÉ	-0.30103
-4.606322	ITALSKÝCH	-0.30103
-4.606322	ITALŠTINOU	-0.30103
-4.606322	ITÁLIE	-0.30103
-4.305292	IVANA	-0.30103
-4.606322	IZOLACE	-0.30103
-4.606322	IZOLACÍCH	-0.30103
-4.305292	IZOLAČNÍCH	-0.39794
-4.430231	IZRAELE	-0.30103
-4.606322	IZRAELI	-0.30103
-4.606322	IZRAELSKÁ	-0.30103
-4.606322	IZRAELSKÝ	-0.30103
-4.606322	JABLÍČKO	-0.30103
-4.606322	JACÍ	-0.30103
-4.606322	JADERNOU	-0.30103
-4.606322	JADERNÝCH	-0.30103
-4.606322	JADRAN	-0.30103
-4.606322	JADRNÉHO	-0.30103
-2.858134	JAK	-0.391028
-4.606322	JAKBYSMET	-0.30103
-4.606322	JAKMILE	-0.30103
-2.752016	JAKO	-0.3622472
-4.606322	JAKOBY	-0.30103
-4.430231	JAKOST	-0.30103
-4.305292	JAKOSTI	-0.30103
-4.208382	JAKOU	-0.30103
-4.606322	JAKOUKOLI	-0.30103
-4.606322	JAKOUKOLIV	-0.30103
-4.430231	JAKOŽ	-0.4771213
-4.430231	JAKUTSKÉ	-0.30103
-4.305292	JAKÁ	-0.30103
-4.606322	JAKÁKOLI	-0.30103
-4.606322	JAKÁKOLIV	-0.30103
-3.606322	JAKÉ	-0.3553877
-4.606322	JAKÉHO	-0.30103
-4.606322	JAKÉHOSI	-0.30103
-4.430231	JAKÉKOLI	-0.4771213
-4.606322	JAKÉKOLIV	-0.30103
-4.430231	JAKÉM	-0.30103
-4.606322	JAKÉMU	-0.30103
-4.606322	JAKÉSI	-0.30103
-3.828171	JAKÝ	-0.3222193
-4.305292	JAKÝCH	-0.30103
-4.606322	JAKÝCHKOLI	-0.30103
-4.606322	JAKÝCHSI	-0.30103
-4.208382	JAKÝM	-0.30103
-4.430231	JAKÝMI	-0.30103
-4.606322	JAKÝMSI	-0.30103
-4.305292	JAKÝSI	-0.30103
-4.430231	JALTA	-0.30103
-4.062254	JAN	-0.30103
-4.430231	JANA	-0.30103
-4.606322	JANEM	-0.30103
-4.430231	JANOČKOVÁ	-0.30103
-4.606322	JANÁKEM	-0.30103
-4.606322	JAPONCI	-0.30103
-4.606322	JAPONSKOU	-0.30103
-4.305292	JAPONSKÉ	-0.30103
-4.430231	JAPONSKÝ	-0.30103
-4.606322	JAPONŠTINĚ	-0.30103
-4.430231	JARNÍ	-0.30103
-4.606322	JARNÍCH	-0.30103
-4.606322	JARNÍHO	-0.30103
-4.606322	JAROMĚŘE	-0.30103
-4.004262	JAROSLAV	-0.4393327
-4.606322	JAROSLAVA	-0.30103
-4.606322	JAROSLAVEM	-0.30103
-4.606322	JARTOSLAV	-0.30103
-4.430231	JASNO	-0.30103
-4.430231	JASNOU	-0.4771213
-4.606322	JASNÁ	-0.30103
-3.95311	JASNÉ	-0.4149733
-4.430231	JASNÝ	-0.30103
-4.606322	JASNĚ	-0.30103
-4.606322	JATEK	-0.30103
-4.606322	JAVELIN	-0.30103
-4.606322	JAZYCE	-0.30103
-4.606322	JAZYKA	-0.30103
-4.606322	JAZYKEM	-0.30103
-4.606322	JAZYKOVĚ	-0.30103
-4.305292	JAZYKŮ	-0.30103
-4.606322	JAZYKŮM	-0.30103
-3.044029	JDE	-0.7883704
-4.606322	JDOU	-0.30103
-1.957474	JE	-0.4401885
-4.606322	JEAN	-0.30103
-4.606322	JEDE	-0.30103
-3.388838	JEDEN	-0.4020566
-4.606322	JEDENKRÁT	-0.30103
-3.907352	JEDENÁCT	-0.3273589
-4.305292	JEDENÁCTI	-0.60206
-4.606322	JEDENÁCTILETÝ	-0.30103
-4.430231	JEDENÁCTÉHO	-0.30103
-4.606322	JEDINCI	-0.30103
-4.606322	JEDINEČNÉ	-0.30103
-4.305292	JEDINOU	-0.30103
-4.208382	JEDINÁ	-0.3679768
-4.305292	JEDINÉ	-0.30103
-4.606322	JEDINÉHO	-0.30103
-4.129201	JEDINÝ	-0.30103
-4.430231	JEDINÝM	-0.30103
-4.606322	JEDINĚ	-0.30103
-3.11496	JEDNA	-0.4089354
-3.793409	JEDNAK	-0.3424227
-4.606322	JEDNAL	-0.30103
-4.430231	JEDNALI	-0.30103
-4.004262	JEDNAT	-0.30103
-4.606322	JEDNATŘICÁTÉHO	-0.30103
-4.606322	JEDNI	-0.30103
-4.606322	JEDNIČKU	-0.30103
-3.761224	JEDNO	-0.3617279
-4.430231	JEDNODUCHÁ	-0.30103
-4.305292	JEDNODUCHÉ	-0.30103
-4.430231	JEDNODUCHÝ	-0.30103
-4.305292	JEDNODUŠE	-0.30103
-4.606322	JEDNODUŠŠÍ	-0.30103
-3.585133	JEDNOHO	-0.3853509
-4.062254	JEDNOM	-0.30103
-4.606322	JEDNOMU	-0.30103
-4.606322	JEDNOPOKOJOVÝ	-0.30103
-4.606322	JEDNORÁZOVÉ	-0.30103
-4.606322	JEDNORÁZOVÝ	-0.30103
-4.430231	JEDNOSTRANNÝM	-0.30103
-4.430231	JEDNOTA	-0.30103
-4.004262	JEDNOTEK	-0.3357921
-4.606322	JEDNOTKA	-0.30103
-4.606322	JEDNOTKAMI	-0.30103
-4.305292	JEDNOTKU	-0.39794
-4.004262	JEDNOTKY	-0.3802112
-4.430231	JEDNOTLIVCI	-0.30103
-4.606322	JEDNOTLIVCŮ	-0.30103
-4.606322	JEDNOTLIVCŮM	-0.30103
-4.606322	JEDNOTLIVOSTI	-0.30103
-4.305292	JEDNOTLIVÁ	-0.30103
-3.86596	JEDNOTLIVÉ	-0.3245111
-4.606322	JEDNOTLIVÉHO	-0.30103
-4.606322	JEDNOTLIVÍ	-0.30103
-3.545624	JEDNOTLIVÝCH	-0.3222193
-4.430231	JEDNOTLIVĚ	-0.30103
-4.606322	JEDNOTNOU	-0.30103
-4.606322	JEDNOTNÁ	-0.30103
-4.430231	JEDNOTNÉ	-0.30103
-4.606322	JEDNOTVÁRNÁ	-0.30103
-4.430231	JEDNOTĚ	-0.30103
-3.606322	JEDNOU	-0.4121805
-4.606322	JEDNOZNAČNÁ	-0.30103
-3.95311	JEDNOZNAČNĚ	-0.30103
-3.585133	JEDNU	-0.3853509
-3.95311	JEDNÁ	-0.4149733
-4.208382	JEDNÁME	-0.3679768
-3.492379	JEDNÁNÍ	-0.4658402
-4.305292	JEDNÁNÍCH	-0.30103
-4.606322	JEDNÁNÍMI	-0.30103
-3.545624	JEDNÉ	-0.3921104
-3.676903	JEDNÍM	-0.69897
-4.606322	JEDOVATÝM	-0.30103
-4.606322	JEHLIČKA	-0.30103
-2.993538	JEHO	-0.3406774
-4.004262	JEHOŽ	-0.30103
-3.703232	JEJ	-0.5440681
-2.810442	JEJICH	-0.3257449
-3.65208	JEJICHŽ	-0.30103
-4.606322	JEJIM	-0.30103
-3.2639	JEJÍ	-0.3413246
-4.305292	JEJÍCH	-0.39794
-4.129201	JEJÍHO	-0.30103
-4.208382	JEJÍM	-0.30103
-4.430231	JEJÍMI	-0.30103
-4.606322	JEJÍMŽ	-0.30103
-3.907352	JEJÍŽ	-0.359022
-4.606322	JELENEM	-0.30103
-4.606322	JELIKOŽ	-0.30103
-4.606322	JELINEK	-0.30103
-4.606322	JEMNÉ	-0.30103
-4.305292	JEMNĚ	-0.39794
-4.129201	JEMU	-0.544068
-2.824567	JEN	-0.4045706
-3.793409	JENOM	-0.30103
-4.606322	JENOMŽE	-0.30103
-4.129201	JENŽE	-0.3521825
-4.606322	JERUZALÉMSKÁ	-0.30103
-4.606322	JERUZALÉMSKÉ	-0.30103
-4.606322	JESLIŽE	-0.30103
-4.129201	JEST	-0.30103
-4.208382	JESTLI	-0.30103
-3.793409	JESTLIŽE	-0.4336556
-4.430231	JET	-0.30103
-4.606322	JEVILO	-0.30103
-4.606322	JEVIŠTĚ	-0.30103
-4.606322	JEVU	-0.30103
-4.606322	JEVÍ	-0.30103
-4.606322	JEZDILO	-0.30103
-4.606322	JEZDILY	-0.30103
-4.430231	JEZDIT	-0.30103
-4.430231	JEZDÍ	-0.30103
-4.606322	JEZER	-0.30103
-4.606322	JEČNÉHO	-0.30103
-3.062254	JEŠTĚ	-0.3403757
-4.305292	JEŽ	-0.30103
-3.402202	JI	-0.30103
-3.676903	JICH	-0.3679768
-4.606322	JICHŽ	-0.30103
-4.606322	JIHOZÁPADNÍ	-0.30103
-4.430231	JIHOČESKÉ	-0.30103
-4.606322	JIKO	-0.30103
-3.375873	JIM	-0.3222193
-4.606322	JIMI	-0.30103
-4.606322	JIMIŽ	-0.30103
-4.606322	JIMŽ	-0.30103
-3.527141	JINAK	-0.4036923
-4.305292	JINAM	-0.39794
-4.062254	JINDE	-0.39794
-4.305292	JINDY	-0.30103
-4.606322	JINDŘICH	-0.30103
-4.606322	JINDŘIŠKA	-0.30103
-4.606322	JINONICE	-0.30103
-3.95311	JINOU	-0.3679768
-4.305292	JINÁ	-0.30103
-3.35105	JINÉ	-0.3209248
-3.793409	JINÉHO	-0.39794
-4.004262	JINÉM	-0.30103
-3.95311	JINÉMU	-0.3679768
-4.430231	JINÍ	-0.30103
-4.004262	JINÝ	-0.30103
-3.509412	JINÝCH	-0.3679768
-4.004262	JINÝM	-0.3357921
-4.208382	JINÝMI	-0.3679768
-4.606322	JISKŘÍ	-0.30103
-4.430231	JISTI	-0.30103
-4.430231	JISTOTA	-0.30103
-4.606322	JISTOTOU	-0.30103
-4.129201	JISTOTU	-0.30103
-4.606322	JISTOTĚ	-0.30103
-4.430231	JISTÁ	-0.30103
-4.208382	JISTÉ	-0.30103
-4.606322	JISTÝ	-0.30103
-4.606322	JISTÝCH	-0.30103
-4.606322	JISTÝM	-0.30103
-3.86596	JISTĚ	-0.30103
-4.606322	JIZERSKÉ	-0.30103
-4.606322	JIČÍN	-0.30103
-3.907352	JIŘÍ	-0.39794
-4.606322	JIŘÍHO	-0.30103
-3.004262	JIŽ	-0.3648635
-4.430231	JIŽNÍ	-0.4771213
-4.606322	JMEN	-0.30103
-4.606322	JMENOVANÉMU	-0.30103
-4.606322	JMENOVANÝCH	-0.30103
-4.606322	JMENOVATELEM	-0.30103
-4.606322	JMENOVÁNÍ	-0.30103
-4.430231	JMENUJE	-0.30103
-4.430231	JMÉNA	-0.30103
-4.606322	JMÉNEM	-0.30103
-4.062254	JMÉNO	-0.30103
-4.305292	JMĚNÍ	-0.39794
-4.430231	JMĚNÍM	-0.30103
-4.606322	JOHN	-0.30103
-4.606322	JOHNA	-0.30103
-3.95311	JOSEF	-0.4149733
-4.606322	JOSEPHA	-0.30103
-2.988274	JSEM	-0.3871399
-2.810442	JSME	-0.4311433
-2.507679	JSOU	-0.3660027
-3.199782	JSTE	-0.4551269
-4.606322	JULIUSE	-0.30103
-4.606322	JUNG	-0.30103
-4.004262	JÁ	-0.3357921
-4.606322	JÁDRA	-0.30103
-4.606322	JÁDRECH	-0.30103
-4.129201	JÁDRO	-0.30103
-4.606322	JÁDROVÉM	-0.30103
-4.606322	JÁSAT	-0.30103
-3.86596	JÍ	-0.30103
-4.606322	JÍDEL	-0.30103
-4.606322	JÍDELNÍ	-0.30103
-4.606322	JÍDELNÍČEK	-0.30103
-4.430231	JÍDLA	-0.30103
-4.430231	JÍDLO	-0.4771213
-4.606322	JÍDLU	-0.30103
-4.430231	JÍM	-0.30103
-4.606322	JÍMŽ	-0.30103
-4.606322	JÍST	-0.30103
-3.828171	JÍT	-0.4522977
-4.606322	JÍVY	-0.30103
-4.430231	JÍZD	-0.30103
-4.606322	JÍZDNÉHO	-0.30103
-4.606322	JÍŽ	-0.30103
-4.606322	JÓGOU	-0.30103
-2.414592	K	-0.4026213
-4.606322	KABEL	-0.30103
-4.606322	KABELKA	-0.30103
-4.606322	KABINU	-0.30103
-4.606322	KABÁT	-0.30103
-4.606322	KACHNĚ	-0.30103
-4.606322	KADAŇ	-0.30103
-4.430231	KADEŘNÍKA	-0.30103
-4.606322	KADIDLO	-0.30103
-4.430231	KADLEC	-0.30103
-4.305292	KAIZEN	-0.30103
-4.606322	KAKTUS	-0.30103
-4.606322	KALAMITU	-0.30103
-4.430231	KALENDÁŘ	-0.30103
-4.606322	KALENDÁŘI	-0.30103
-4.606322	KALENDÁŘNÍM	-0.30103
-4.430231	KALKULACE	-0.4771213
-4.606322	KALKULACI	-0.30103
-4.606322	KALKULUJE	-0.30103
-4.606322	KALŮ	-0.30103
-3.86596	KAM	-0.4259687
-4.004262	KAMENE	-0.30103
-4.606322	KAMENEM	-0.30103
-4.606322	KAMENNÉ	-0.30103
-3.828171	KAMENY	-0.3222193
-4.129201	KAMENŮ	-0.3521825
-4.606322	KAMENŮM	-0.30103
-4.606322	KAMERU	-0.30103
-4.430231	KAMIONŮ	-0.30103
-4.606322	KAMKOLIV	-0.30103
-4.606322	KAMPANI	-0.30103
-4.430231	KAMPANĚ	-0.30103
-4.430231	KAMPAŇ	-0.30103
-4.606322	KANADOU	-0.30103
-4.430231	KANADSKOU	-0.30103
-4.305292	KANADSKÁ	-0.39794
-4.129201	KANADSKÉ	-0.30103
-4.606322	KANADSKÉHO	-0.30103
-4.606322	KANADSKÉM	-0.30103
-4.606322	KANADSKÝ	-0.30103
-4.430231	KANADSKÝCH	-0.30103
-4.430231	KANADSKÝM	-0.30103
-4.606322	KANADSKÝMI	-0.30103
-4.208382	KANADY	-0.30103
-3.95311	KANADĚ	-0.30103
-4.430231	KANADŠTÍ	-0.30103
-4.606322	KANALIZACE	-0.30103
-4.430231	KANAĎANÉ	-0.30103
-4.606322	KANAĎANŮ	-0.30103
-3.793409	KANCELÁŘ	-0.3203351
-3.86596	KANCELÁŘE	-0.3521825
-4.129201	KANCELÁŘI	-0.3521825
-4.606322	KANCELÁŘSKÉHO	-0.30103
-3.793409	KANCELÁŘÍ	-0.3679768
-4.606322	KANCELÁŘÍM	-0.30103
-4.430231	KANDIDÁTA	-0.30103
-4.606322	KANDIDÁTECH	-0.30103
-4.606322	KANDIDÁTŮ	-0.30103
-4.606322	KANDOVANÉHO	-0.30103
-4.606322	KANTORKY	-0.30103
-4.606322	KANÁL	-0.30103
-4.430231	KAPACIT	-0.30103
-4.606322	KAPACITA	-0.30103
-4.606322	KAPACITNÍMI	-0.30103
-4.606322	KAPACITOU	-0.30103
-4.305292	KAPACITU	-0.30103
-4.430231	KAPACITY	-0.30103
-4.606322	KAPELA	-0.30103
-4.606322	KAPESNÉ	-0.30103
-4.606322	KAPITOLE	-0.30103
-4.430231	KAPITOLY	-0.30103
-4.430231	KAPITOLÁCH	-0.30103
-4.606322	KAPITULUJE	-0.30103
-4.129201	KAPITÁL	-0.3521825
-4.430231	KAPITÁLOVÉ	-0.30103
-4.305292	KAPITÁLOVÉM	-0.60206
-4.208382	KAPITÁLOVÝ	-0.4771212
-4.606322	KAPITÁLOVÝCH	-0.30103
-4.430231	KAPITÁLOVÝM	-0.30103
-4.606322	KAPITÁLOVĚ	-0.30103
-3.828171	KAPITÁLU	-0.50515
-4.606322	KAPKY	-0.30103
-4.606322	KAPLI	-0.30103
-4.606322	KAPR	-0.30103
-4.606322	KAPRA	-0.30103
-4.606322	KAPREM	-0.30103
-4.606322	KAPRŮ	-0.30103
-4.606322	KAPSY	-0.30103
-4.606322	KAPŘÍKŮ	-0.30103
-4.606322	KARCINOGENNÍ	-0.30103
-4.305292	KAREL	-0.60206
-4.606322	KARETNÍ	-0.30103
-4.606322	KARIÉRY	-0.30103
-4.606322	KARKÝZY	-0.30103
-4.305292	KARLA	-0.39794
-4.606322	KARLOVARSKÉHO	-0.30103
-4.430231	KARLOVY	-0.30103
-4.606322	KARLOVÝCH	-0.30103
-4.606322	KARLÍNĚ	-0.30103
-4.606322	KARNEVAL	-0.30103
-4.606322	KARTON	-0.30103
-4.606322	KARTU	-0.30103
-4.129201	KARTY	-0.30103
-4.606322	KARTÁČEK	-0.30103
-4.606322	KARÁT	-0.30103
-4.606322	KARÁTOVÉHO	-0.30103
-4.430231	KARÁTOVÝ	-0.4771212
-3.95311	KARÁTU	-0.4771212
-4.606322	KARÁTŮ	-0.30103
-4.606322	KASKÁDOU	-0.30103
-4.606322	KASY	-0.30103
-3.95311	KATALOG	-0.3309932
-4.606322	KATALOGOVÉ	-0.30103
-4.004262	KATALOGU	-0.3357921
-4.305292	KATALOGY	-0.30103
-4.129201	KATALOGŮ	-0.4259687
-4.606322	KATALOZÍCH	-0.30103
-4.606322	KATALYZÁTOR	-0.30103
-4.004262	KATASTRU	-0.9030899
-4.062254	KATASTRÁLNÍHO	-0.845098
-4.062254	KATASTRÁLNÍMU	-0.845098
-4.062254	KATEGORIE	-0.30103
-4.606322	KATEGORII	-0.30103
-4.606322	KATEGORIÍ	-0.30103
-4.430231	KATEGORIÍCH	-0.30103
-4.606322	KATOVICE	-0.30103
-4.606322	KAUCE	-0.30103
-4.606322	KAVÁN	-0.30103
-4.606322	KAVÁREN	-0.30103
-4.305292	KAZETY	-0.30103
-4.606322	KAZETĚ	-0.30103
-4.606322	KAŇA	-0.30103
-4.430231	KAŽDODENNÍM	-0.30103
-4.606322	KAŽDOPÁDNĚ	-0.30103
-4.305292	KAŽDOROČNĚ	-0.30103
-4.208382	KAŽDOU	-0.30103
-4.430231	KAŽDÁ	-0.30103
-4.004262	KAŽDÉ	-0.30103
-3.86596	KAŽDÉHO	-0.30103
-3.95311	KAŽDÉM	-0.3679768
-4.606322	KAŽDÉMU	-0.30103
-3.509412	KAŽDÝ	-0.3309932
-4.606322	KAŽDÝM	-0.30103
-3.226111	KDE	-0.4378679
-4.606322	KDEŽE	-0.30103
-4.208382	KDEŽTO	-0.3679768
-3.217156	KDO	-0.3899711
-4.606322	KDOKOLI	-0.30103
-4.606322	KDOSI	-0.30103
-4.606322	KDOVÍJAKÁ	-0.30103
-4.606322	KDOŽ	-0.30103
-3.056094	KDY	-0.396088
-3.86596	KDYBY	-0.30103
-4.129201	KDYBYCH	-0.30103
-4.430231	KDYBYCHOM	-0.30103
-4.305292	KDYKOLIV	-0.30103
-4.606322	KDYSI	-0.30103
-2.907352	KDYŽ	-0.4324717
-3.129201	KE	-0.3751317
-4.208382	KEG	-0.69897
-4.606322	KERAMICKÉ	-0.30103
-4.606322	KERAMICKÝ	-0.30103
-4.305292	KERAMIKY	-0.39794
-4.606322	KILA	-0.30103
-4.208382	KILO	-0.30103
-4.430231	KILOGRAM	-0.30103
-4.606322	KILOGRAMU	-0.30103
-4.606322	KILOMETR	-0.30103
-3.907352	KILOMETRŮ	-0.359022
-4.606322	KILOVOLTŮ	-0.30103
-4.606322	KILOWATTHODIN	-0.30103
-4.606322	KILOWATTHODINU	-0.30103
-4.606322	KILOWATTOVÝ	-0.30103
-4.430231	KLADE	-0.30103
-4.606322	KLADEN	-0.30103
-4.606322	KLADENSKÁ	-0.30103
-4.606322	KLADENSKÝ	-0.30103
-4.606322	KLADENÝ	-0.30103
-4.606322	KLADNO	-0.30103
-4.305292	KLADNÉ	-0.30103
-4.606322	KLADNĚ	-0.30103
-4.606322	KLADU	-0.30103
-4.606322	KLADÍVKA	-0.30103
-4.305292	KLAMAVOU	-0.60206
-4.606322	KLAPNUTÍ	-0.30103
-4.606322	KLASICKÁ	-0.30103
-4.305292	KLASICKÉ	-0.30103
-4.430231	KLASICKÉHO	-0.30103
-4.430231	KLASICKÝ	-0.30103
-4.606322	KLASICKÝM	-0.30103
-4.606322	KLASIFIKOVANÉ	-0.30103
-4.606322	KLASIKOVI	-0.30103
-4.606322	KLASIKY	-0.30103
-4.606322	KLATOV	-0.30103
-4.430231	KLAUS	-0.4771213
-4.606322	KLESAJÍCÍ	-0.30103
-4.606322	KLESAJÍCÍHO	-0.30103
-4.606322	KLESALA	-0.30103
-4.606322	KLESL	-0.30103
-4.430231	KLESLY	-0.30103
-4.606322	KLESNOUT	-0.30103
-3.95311	KLESÁ	-0.3679768
-4.430231	KLID	-0.4771212
-4.606322	KLIDEM	-0.30103
-4.606322	KLIDNÉHO	-0.30103
-4.606322	KLIDNÝ	-0.30103
-4.208382	KLIDNĚ	-0.30103
-4.062254	KLIDU	-0.30103
-4.129201	KLIENT	-0.3521825
-4.430231	KLIENTA	-0.30103
-4.430231	KLIENTELU	-0.30103
-4.606322	KLIENTELY	-0.30103
-4.430231	KLIENTI	-0.30103
-4.606322	KLIENTOVI	-0.30103
-4.430231	KLIENTY	-0.30103
-4.062254	KLIENTŮ	-0.4771212
-4.606322	KLIENTŮM	-0.30103
-4.430231	KLIMA	-0.30103
-4.606322	KLINICKÝ	-0.30103
-4.430231	KLINIKY	-0.30103
-4.606322	KLISNY	-0.30103
-4.606322	KLUKOVSKÝM	-0.30103
-4.606322	KLUZIŠTI	-0.30103
-4.606322	KLÁVESNICE	-0.30103
-4.606322	KLÍČE	-0.30103
-4.606322	KLÍČEK	-0.30103
-4.606322	KLÍČEM	-0.30103
-4.606322	KLÍČOVOU	-0.30103
-4.606322	KLÍČOVÉ	-0.30103
-4.606322	KLÍČOVÝCH	-0.30103
-4.606322	KLÍČŮ	-0.30103
-4.606322	KMENE	-0.30103
-4.606322	KMITOČTOVÉ	-0.30103
-4.305292	KNIH	-0.39794
-4.062254	KNIHA	-0.30103
-4.208382	KNIHU	-0.3679768
-4.430231	KNIHY	-0.30103
-4.305292	KNIZE	-0.30103
-4.305292	KNOW	-0.60206
-4.305292	KNÍŽKU	-0.30103
-4.430231	KNÍŽKY	-0.30103
-4.606322	KOALICE	-0.30103
-4.606322	KOBERCE	-0.30103
-4.606322	KOBERY	-0.30103
-4.606322	KODANI	-0.30103
-4.305292	KOGENERAČNÍ	-0.30103
-4.606322	KOHNER	-0.30103
-4.606322	KOHNERA	-0.30103
-4.606322	KOHO	-0.30103
-4.606322	KOKTEILY	-0.30103
-4.606322	KOKTEJL	-0.30103
-4.430231	KOL	-0.30103
-4.062254	KOLA	-0.30103
-4.004262	KOLE	-0.30103
-4.606322	KOLECH	-0.30103
-4.430231	KOLEGA	-0.30103
-4.208382	KOLEGOVÉ	-0.3679768
-4.606322	KOLEGŮM	-0.30103
-4.606322	KOLEK	-0.30103
-4.208382	KOLEKCE	-0.30103
-4.430231	KOLEKCI	-0.30103
-4.430231	KOLEKTIVNÍ	-0.30103
-3.305292	KOLEM	-0.3789168
-4.606322	KOLENA	-0.30103
-4.606322	KOLENĚ	-0.30103
-3.585133	KOLIK	-0.3679768
-4.606322	KOLIZNÍ	-0.30103
-4.430231	KOLO	-0.30103
-4.606322	KOLORITU	-0.30103
-4.606322	KOLOS	-0.30103
-4.606322	KOLOTOČ	-0.30103
-4.606322	KOLUMBII	-0.30103
-4.606322	KOLÁČ	-0.30103
-4.606322	KOLÉBKY	-0.30103
-4.430231	KOLÍN	-0.30103
-4.606322	KOLÍNEK	-0.30103
-4.606322	KOLÍNĚ	-0.30103
-4.606322	KOLÍSÁ	-0.30103
-4.606322	KOLŮM	-0.30103
-4.305292	KOMBINACE	-0.30103
-4.305292	KOMBINACI	-0.60206
-4.430231	KOMBINOVANÉ	-0.30103
-4.606322	KOMBINOVANÝ	-0.30103
-4.606322	KOMBINOVANÝCH	-0.30103
-4.430231	KOMBINOVAT	-0.30103
-4.606322	KOMEDIE	-0.30103
-4.606322	KOMENSKÉHO	-0.30103
-4.606322	KOMERCIALIZACÍ	-0.30103
-4.062254	KOMERČNÍ	-0.39794
-4.606322	KOMERČNÍCH	-0.30103
-4.606322	KOMERČNÍHO	-0.30103
-3.907352	KOMISE	-0.3273589
-4.305292	KOMISI	-0.30103
-4.606322	KOMISNÍ	-0.30103
-4.606322	KOMISNÍM	-0.30103
-4.208382	KOMISÍ	-0.30103
-4.430231	KOMOR	-0.30103
-4.208382	KOMORA	-0.30103
-4.606322	KOMORAMI	-0.30103
-4.606322	KOMOROU	-0.30103
-4.606322	KOMORU	-0.30103
-4.208382	KOMORY	-0.30103
-4.606322	KOMOŘE	-0.30103
-4.430231	KOMPETENCE	-0.30103
-4.606322	KOMPETENCI	-0.30103
-4.606322	KOMPETENCÍ	-0.30103
-4.606322	KOMPLETACÍ	-0.30103
-4.606322	KOMPLETNÍ	-0.30103
-4.606322	KOMPLETNÍCH	-0.30103
-4.305292	KOMPLEXNÍ	-0.30103
-4.606322	KOMPLEXU	-0.30103
-4.430231	KOMPLIKACE	-0.30103
-4.606322	KOMPLIKACÍM	-0.30103
-4.606322	KOMPLIKOVANÁ	-0.30103
-4.606322	KOMPLIKUJÍCÍ	-0.30103
-4.430231	KOMPONENTY	-0.30103
-4.606322	KOMPONENTŮ	-0.30103
-4.606322	KOMPOZICÍ	-0.30103
-4.430231	KOMPROMIS	-0.4771213
-4.606322	KOMPUTERIZACE	-0.30103
-4.606322	KOMTURA	-0.30103
-4.606322	KOMTUREM	-0.30103
-4.129201	KOMU	-0.30103
-4.305292	KOMUNIKACE	-0.39794
-4.430231	KOMUNIKACI	-0.30103
-4.606322	KOMÍN	-0.30103
-4.606322	KOMÍNA	-0.30103
-4.606322	KONAL	-0.30103
-4.606322	KONALY	-0.30103
-4.430231	KONAT	-0.4771212
-3.95311	KONCE	-0.4149733
-3.907352	KONCEM	-0.3590219
-4.430231	KONCEPCE	-0.30103
-4.606322	KONCEPCI	-0.30103
-4.606322	KONCEPTEM	-0.30103
-4.606322	KONCEPČNÍ	-0.30103
-4.606322	KONCERN	-0.30103
-4.606322	KONCERNŮ	-0.30103
-4.606322	KONCERT	-0.30103
-4.430231	KONCERTU	-0.4771213
-4.606322	KONCESOVANOU	-0.30103
-4.606322	KONCESOVANÉ	-0.30103
-4.606322	KONCESOVANÝCH	-0.30103
-4.606322	KONCESOVANÝMI	-0.30103
-4.004262	KONCI	-0.30103
-4.606322	KONCIPOVÁNÍM	-0.30103
-4.606322	KONCÍCH	-0.30103
-4.606322	KONCŮ	-0.30103
-4.606322	KONDENZAČNÍ	-0.30103
-4.430231	KONDIČNÍ	-0.30103
-4.208382	KONEC	-0.30103
-4.606322	KONECKONCŮ	-0.30103
-4.606322	KONEČNÉ	-0.30103
-4.430231	KONEČNÉMU	-0.4771212
-4.305292	KONEČNÝ	-0.39794
-4.606322	KONEČNÝM	-0.30103
-4.208382	KONEČNĚ	-0.30103
-4.606322	KONFEKCE	-0.30103
-4.606322	KONFEKCI	-0.30103
-4.606322	KONFEKČNÍCH	-0.30103
-4.606322	KONFORMNÍ	-0.30103
-4.606322	KONINY	-0.30103
-4.606322	KONJUNKTUROU	-0.30103
-3.95311	KONKRÉTNÍ	-0.3309932
-4.208382	KONKRÉTNÍCH	-0.4771213
-4.430231	KONKRÉTNÍHO	-0.30103
-4.606322	KONKRÉTNĚ	-0.30103
-3.828171	KONKURENCE	-0.3467875
-3.95311	KONKURENCI	-0.3679768
-4.305292	KONKURENCÍ	-0.30103
-4.606322	KONKURENTA	-0.30103
-4.606322	KONKURENTI	-0.30103
-4.606322	KONKURENTY	-0.30103
-4.606322	KONKURENTŮ	-0.30103
-3.907352	KONKURENČNÍ	-0.3590219
-4.606322	KONKURENČNÍCH	-0.30103
-4.606322	KONKURENČNÍHO	-0.30103
-4.606322	KONKUREČNÍ	-0.30103
-4.606322	KONKURSU	-0.30103
-4.606322	KONKURUJÍCÍCH	-0.30103
-4.208382	KONKURZ	-0.4771213
-4.305292	KONKURZNÍ	-0.30103
-4.606322	KONKURZNÍCH	-0.30103
-4.430231	KONKURZU	-0.30103
-4.606322	KONKURZŮ	-0.30103
-4.606322	KONSENZU	-0.30103
-4.606322	KONSTATOVALI	-0.30103
-4.606322	KONSTATOVAT	-0.30103
-4.606322	KONSTATOVÁNÍ	-0.30103
-4.430231	KONSTATUJE	-0.30103
-4.430231	KONSTRUKCE	-0.30103
-4.606322	KONSTRUKTÉŘI	-0.30103
-3.828171	KONTAKT	-0.4101744
-4.606322	KONTAKTECH	-0.30103
-4.606322	KONTAKTNÍ	-0.30103
-4.606322	KONTAKTOVANÉ	-0.30103
-4.606322	KONTAKTU	-0.30103
-4.606322	KONTAKTUJEME	-0.30103
-4.208382	KONTAKTY	-0.30103
-4.430231	KONTAKTŮ	-0.30103
-4.606322	KONTAMINOVANÝCH	-0.30103
-4.606322	KONTRAHUJE	-0.30103
-4.606322	KONTRAINDIKACE	-0.30103
-4.430231	KONTRAKT	-0.30103
-4.430231	KONTRAKTAČNÍ	-0.30103
-4.430231	KONTRAKTAČNÍCH	-0.4771213
-4.606322	KONTRAKTU	-0.30103
-4.430231	KONTRAKTY	-0.30103
-4.606322	KONTRAST	-0.30103
-4.606322	KONTROLA	-0.30103
-4.606322	KONTROLE	-0.30103
-4.305292	KONTROLNÍ	-0.39794
-4.430231	KONTROLNÍHO	-0.4771212
-4.606322	KONTROLNÍMU	-0.30103
-4.606322	KONTROLOVANÉ	-0.30103
-4.606322	KONTROLOVATELNOU	-0.30103
-4.606322	KONTROLOVÁNA	-0.30103
-4.305292	KONTROLU	-0.30103
-4.606322	KONTROLUJÍ	-0.30103
-4.430231	KONTROLY	-0.30103
-4.606322	KONVERTIBILITY	-0.30103
-4.606322	KONZERVATISMUS	-0.30103
-4.606322	KONZERVÁRENSKÉHO	-0.30103
-4.606322	KONZULTACE	-0.30103
-4.606322	KONZULTACI	-0.30103
-4.606322	KONZULTOVAT	-0.30103
-4.606322	KONZULTUJI	-0.30103
-4.606322	KONZUMNÍHO	-0.30103
-4.606322	KONČE	-0.30103
-4.430231	KONČÍ	-0.30103
-4.208382	KOOPERACE	-0.30103
-4.606322	KOOPERACEMI	-0.30103
-4.430231	KOOPERACÍ	-0.30103
-4.606322	KOOPERANTŮ	-0.30103
-4.606322	KOORDINACÍ	-0.30103
-4.606322	KOORDINOVANÝCH	-0.30103
-4.606322	KOPECKÝM	-0.30103
-4.606322	KOPII	-0.30103
-4.305292	KOPIÍ	-0.30103
-4.606322	KOPÍRKU	-0.30103
-4.606322	KOPÍRKY	-0.30103
-4.606322	KOPÍROVÁNÍ	-0.30103
-4.208382	KOPŘIVNICE	-0.30103
-4.430231	KOPŘIVNICI	-0.30103
-4.430231	KOPŘIVNICKÁ	-0.30103
-4.606322	KOREKTNÍ	-0.30103
-4.606322	KORELACI	-0.30103
-4.606322	KORESPONDENCE	-0.30103
-4.430231	KORESPONDENCI	-0.30103
-4.606322	KORN	-0.30103
-2.725509	KORUN	-0.5977812
-4.305292	KORUNA	-0.30103
-4.430231	KORUNAMI	-0.30103
-4.208382	KORUNU	-0.3679768
-3.828171	KORUNY	-0.3467875
-4.129201	KORUNÁCH	-0.30103
-4.606322	KORUNÁM	-0.30103
-4.305292	KORUNĚ	-0.39794
-4.606322	KOSMETICKÉ	-0.30103
-4.606322	KOSMETIKU	-0.30103
-4.606322	KOSMETIKY	-0.30103
-4.606322	KOSMICKÉHO	-0.30103
-4.606322	KOSMICKÝCH	-0.30103
-4.606322	KOSTEK	-0.30103
-4.606322	KOSTELCI	-0.30103
-4.606322	KOSTELECKÉ	-0.30103
-4.606322	KOSTNÍ	-0.30103
-4.606322	KOSTRA	-0.30103
-4.606322	KOSTÝMY	-0.30103
-4.606322	KOTELNU	-0.30103
-4.606322	KOTVĚ	-0.30103
-4.606322	KOUPELNY	-0.30103
-4.606322	KOUPENÉ	-0.30103
-4.606322	KOUPENÉM	-0.30103
-4.430231	KOUPENÝCH	-0.4771213
-3.828171	KOUPI	-0.3222193
-3.86596	KOUPIL	-0.3521825
-4.305292	KOUPILI	-0.30103
-3.628599	KOUPIT	-0.3424227
-4.606322	KOUPÁNÍ	-0.30103
-4.208382	KOUPÍ	-0.30103
-4.606322	KOUPÍM	-0.30103
-4.606322	KOUPÍME	-0.30103
-4.606322	KOUPÍTE	-0.30103
-4.208382	KOUPĚ	-0.30103
-4.606322	KOUPĚSCHOPNOSTI	-0.30103
-4.606322	KOUSKU	-0.30103
-4.606322	KOUSKY	-0.30103
-4.606322	KOUSKŮ	-0.30103
-4.606322	KOUŘENÍ	-0.30103
-4.606322	KOUŘENÍM	-0.30103
-4.606322	KOV	-0.30103
-4.606322	KOVAČKY	-0.30103
-4.606322	KOVOFINIŠ	-0.30103
-4.606322	KOVOFINIŠI	-0.30103
-4.606322	KOVOHUTĚ	-0.30103
-4.430231	KOVOVOU	-0.4771213
-4.606322	KOVOVÉ	-0.30103
-4.606322	KOVOVÝROBY	-0.30103
-4.430231	KOVY	-0.30103
-4.606322	KOVÁŘSKÉ	-0.30103
-4.606322	KOČÁRNÍKA	-0.30103
-4.606322	KOŠILE	-0.30103
-4.606322	KOŠILI	-0.30103
-4.430231	KOŽENÉ	-0.30103
-4.606322	KOŽENÉHO	-0.30103
-4.606322	KOŽEŠINY	-0.30103
-4.606322	KPB	-0.30103
-4.606322	KRABIČKU	-0.30103
-4.606322	KRACHEM	-0.30103
-4.606322	KRACHU	-0.30103
-4.606322	KRAJINKA	-0.30103
-4.606322	KRAJINKY	-0.30103
-4.430231	KRAJINY	-0.4771213
-4.606322	KRAJSKÉHO	-0.30103
-4.606322	KRAJSKÝCH	-0.30103
-4.606322	KRATIČKÉ	-0.30103
-4.430231	KRATŠÍ	-0.30103
-4.606322	KRATŠÍCH	-0.30103
-4.606322	KRAVATA	-0.30103
-4.606322	KRAVATU	-0.30103
-4.606322	KRAŤASECH	-0.30103
-4.062254	KREDITNÍ	-0.60206
-4.606322	KREDO	-0.30103
-4.606322	KREJČOVSKÉ	-0.30103
-4.606322	KREJČÍ	-0.30103
-4.606322	KRESBA	-0.30103
-4.606322	KRESLILI	-0.30103
-4.606322	KRESLIT	-0.30103
-4.606322	KRETSCHMER	-0.30103
-4.606322	KREVNÍ	-0.30103
-4.606322	KREVNÍHO	-0.30103
-4.606322	KRISTIANA	-0.30103
-4.606322	KRITERIA	-0.30103
-4.305292	KRITERIEM	-0.30103
-4.606322	KRITERIÍCH	-0.30103
-4.606322	KRITICKY	-0.30103
-4.606322	KRITICKÝCH	-0.30103
-4.606322	KRITIKŮ	-0.30103
-4.606322	KRITIZOVALA	-0.30103
-4.430231	KRITIZUJÍ	-0.4771213
-4.062254	KRITÉRIA	-0.30103
-4.430231	KRITÉRIÍ	-0.30103
-4.606322	KRITÉRIÍM	-0.30103
-4.208382	KRIZE	-0.30103
-4.430231	KRIZI	-0.30103
-4.606322	KRIZOVÉ	-0.30103
-4.606322	KRIZOVÉHO	-0.30103
-4.606322	KRIZOVÉM	-0.30103
-4.606322	KRIZOVÝCH	-0.30103
-4.606322	KRIZÍ	-0.30103
-4.606322	KRKU	-0.30103
-4.606322	KRMIV	-0.30103
-4.305292	KRMIVA	-0.39794
-4.606322	KRMIVÁŘSKÝ	-0.30103
-4.606322	KRMNÉ	-0.30103
-4.606322	KRMNÉHO	-0.30103
-4.430231	KROK	-0.30103
-4.305292	KROKEM	-0.60206
-4.208382	KROKY	-0.30103
-4.305292	KROKŮ	-0.39794
-4.606322	KROM	-0.30103
-3.402202	KROMĚ	-0.3818532
-4.305292	KROUŽKU	-0.60206
-4.606322	KRUH	-0.30103
-4.606322	KRUHOVÉHO	-0.30103
-4.606322	KRUHY	-0.30103
-4.430231	KRUHŮ	-0.30103
-4.430231	KRUPCE	-0.30103
-4.208382	KRUZÍCH	-0.69897
-4.606322	KRUŠNOHORSKÉ	-0.30103
-4.606322	KRUŠNOHORSKÝCH	-0.30103
-4.606322	KRUŠOVICE	-0.30103
-4.430231	KRYTÍ	-0.30103
-4.606322	KRÁCENÍ	-0.30103
-4.430231	KRÁLE	-0.30103
-4.606322	KRÁLIČÍCH	-0.30103
-4.606322	KRÁLOVSTVÍ	-0.30103
-4.305292	KRÁLOVÉ	-0.30103
-4.430231	KRÁLÍKY	-0.30103
-4.606322	KRÁLÍKŮ	-0.30103
-4.606322	KRÁMĚ	-0.30103
-4.606322	KRÁSNÁ	-0.30103
-4.430231	KRÁSNÉ	-0.30103
-4.430231	KRÁSNÝ	-0.30103
-4.606322	KRÁSNĚJŠÍ	-0.30103
-4.430231	KRÁSY	-0.30103
-3.793409	KRÁT	-0.30103
-4.430231	KRÁTCE	-0.30103
-4.430231	KRÁTKODOBÉ	-0.30103
-4.606322	KRÁTKOZRAKÁ	-0.30103
-4.606322	KRÁTKOZRAKÉ	-0.30103
-4.129201	KRÁTKÉ	-0.7781513
-4.606322	KRÁTKÉM	-0.30103
-4.606322	KRÁTKÝ	-0.30103
-4.606322	KRÁVA	-0.30103
-4.606322	KRÁVU	-0.30103
-4.606322	KRÁČÍŠ	-0.30103
-4.606322	KRÉTA	-0.30103
-4.606322	KRÝT	-0.30103
-4.606322	KRŮTY	-0.30103
-3.35105	KTEROU	-0.3357921
-2.95311	KTERÁ	-0.4440448
-2.591382	KTERÉ	-0.4482451
-4.430231	KTERÉHO	-0.30103
-4.606322	KTERÉKOLIV	-0.30103
-4.208382	KTERÉM	-0.30103
-4.305292	KTERÉMU	-0.30103
-4.606322	KTERÉMUKOLI	-0.30103
-2.725509	KTERÝ	-0.4501377
-3.828171	KTERÝCH	-0.3467875
-3.86596	KTERÝM	-0.3245111
-4.208382	KTERÝMI	-0.30103
-3.074843	KTEŘÍ	-0.4141772
-4.208382	KU	-0.30103
-4.606322	KUBISTICKÉM	-0.30103
-4.606322	KUBIŠTA	-0.30103
-4.606322	KUBÍN	-0.30103
-4.606322	KUCHYNÍ	-0.30103
-4.606322	KUCHYŇSKÁ	-0.30103
-4.606322	KUCHYŇSKÉ	-0.30103
-4.208382	KUDY	-0.30103
-4.606322	KUFŘÍKU	-0.30103
-4.606322	KUKUŘICÍ	-0.30103
-4.606322	KUKUŘIČNÝ	-0.30103
-4.606322	KULATINU	-0.30103
-4.430231	KULATINY	-0.30103
-4.606322	KULIČKOVÝCH	-0.30103
-4.606322	KULMA	-0.30103
-4.606322	KULTURA	-0.30103
-4.606322	KULTURNOST	-0.30103
-4.430231	KULTURNÍ	-0.4771213
-4.430231	KULTURY	-0.30103
-4.606322	KUNEŠ	-0.30103
-4.606322	KUNG	-0.30103
-4.606322	KUNOVICE	-0.30103
-4.606322	KUNSTHISTORICI	-0.30103
-4.606322	KUNSTHISTORIKY	-0.30103
-4.305292	KUPCE	-0.39794
-4.606322	KUPEC	-0.30103
-3.907352	KUPNÍ	-0.447158
-4.430231	KUPONOVOU	-0.30103
-4.208382	KUPONOVÁ	-0.69897
-3.703232	KUPONOVÉ	-0.7781512
-4.208382	KUPONY	-0.69897
-4.606322	KUPONŮ	-0.30103
-4.430231	KUPOVALA	-0.30103
-4.305292	KUPOVAT	-0.30103
-4.606322	KUPUJE	-0.30103
-4.606322	KUPUJEME	-0.30103
-4.606322	KUPUJETE	-0.30103
-4.606322	KUPUJTE	-0.30103
-4.062254	KUPUJÍ	-0.30103
-3.761224	KUPUJÍCÍ	-0.3187588
-4.129201	KUPUJÍCÍCH	-0.3521825
-4.208382	KUPUJÍCÍHO	-0.30103
-4.208382	KUPUJÍCÍM	-0.3679768
-4.606322	KUPUJÍCÍMU	-0.30103
-4.305292	KUPÓNOVÉ	-0.60206
-4.606322	KUPÓNY	-0.30103
-4.606322	KUPŘÍKLADU	-0.30103
-4.606322	KURTY	-0.30103
-4.062254	KURZ	-0.39794
-4.606322	KURZEM	-0.30103
-4.208382	KURZOVNÉ	-0.30103
-3.95311	KURZU	-0.30103
-4.062254	KURZY	-0.3424226
-4.208382	KURZŮ	-0.3679768
-4.305292	KUS	-0.30103
-4.606322	KUSECH	-0.30103
-4.062254	KUSŮ	-0.3424227
-4.430231	KUŘETE	-0.30103
-4.606322	KUŘÁKŮM	-0.30103
-4.208382	KVALIFIKACE	-0.3679768
-4.606322	KVALIFIKOVANÉ	-0.30103
-4.430231	KVALIFIKOVANÍ	-0.4771212
-4.606322	KVALIFIKOVANĚ	-0.30103
-4.606322	KVALIT	-0.30103
-3.731261	KVALITA	-0.30103
-4.305292	KVALITATIVNÍ	-0.30103
-3.793409	KVALITNÍ	-0.3203351
-4.430231	KVALITNÍHO	-0.30103
-4.305292	KVALITNÍM	-0.30103
-4.606322	KVALITNĚ	-0.30103
-4.606322	KVALITNĚJŠÍ	-0.30103
-4.606322	KVALITOU	-0.30103
-3.731261	KVALITU	-0.4393327
-3.585133	KVALITY	-0.3521825
-4.606322	KVALITÁCH	-0.30103
-4.208382	KVALITĚ	-0.3679768
-4.606322	KVANTIFIKOVAT	-0.30103
-4.606322	KVESTOR	-0.30103
-4.606322	KVOTACE	-0.30103
-4.606322	KVÓTU	-0.30103
-4.606322	KVÓTY	-0.30103
-4.606322	KVĚTEN	-0.30103
-4.606322	KVĚTIN	-0.30103
-4.129201	KVĚTNA	-0.3521826
-4.430231	KVĚTNU	-0.30103
-3.761224	KVŮLI	-0.3388186
-4.606322	KYPR	-0.30103
-4.606322	KYSELINY	-0.30103
